tree
version=v4
num_class=1
num_tree_per_iteration=1
label_index=0
max_feature_idx=19
objective=regression
feature_names=month Latitude Longitude Dam_Height_(Ft) NID_Height_(Ft) Dam_Length_(Ft) Year_Completed NID_Storage_(Acre-Ft) Max_Storage_(Acre-Ft) Normal_Storage_(Acre-Ft) Surface_Area_(Acres) Drainage_Area_(Sq_Miles) tmin tmax tavg pcpn Division_ID Primary_Purpose nerc_region mode
feature_infos=[-1.5932550136313832:1.5932550136313832] [-3.3650895399166076:1.8104870004100633] [-1.6555912593373252:1.372171253778242] [-0.81942219720544218:6.5576033533398217] [-0.86348389750197296:5.9609314312360686] [-0.44124014446398524:12.434357102386103] [-3.7199638149369934:2.2495285870598702] [-0.073009511158672116:33.245099838587755] [-0.072180245923625014:33.245803110197663] [-0.061416181672201142:33.58773618997904] [-0.041032866195463751:34.120768311250785] [-0.19688478644325413:26.860747344814996] [-3.3699015391796272:2.5859702518923879] [-2.9985170754978885:2.631676494674994] [-3.115283899571073:2.6137086064647019] [-1.3583728662744488:13.879268051398284] -1:132:133:80:33:83:82:79:145:95:37:73:147:170:47:127:171:169:121:181:111:156:153:112:1:77:182:139:41:2:157:155:81:146:183:62:135:31:96:154:167:11:117:32:134:72:173:65:190:43:128:110:5:123:168:45:120:51:158:92:143:0:12:151:180:189:194:187:84:38:130:109:137:49:52:4:50:91:15:58:76:188:176:78:102:7:116:104:141:119:166:17:40:161:149:8:185:70:126:56:14:107:60:131:162:9:42:165:86:172:61:46:193:136:174:138:71:191:53:69:93:124:142:10:68:159:25:28:87:106:122:178:21:26:63:150:39:100:74:164:186:34:144:20:113:125:108:148:97:99:19:98:177:184:160:36:30:57:23:55:118:3:16:22:90:114:179:13:18:24:67:75:103:29:35:54:59:85:175:44:140:27:66:89:105:6:64:129:163:94:48:101:115:88:192 -1:4:3:6:9:5:7:2:8:1 -1:5:1:3:0:2:4 -1:1:0
tree_sizes=11599 11662 11696 11663 11620 11649 11331 11570 11657 11528 11683 11654 11626 11574 11620 11674 11681 11619 11616 11362 11636 11590 11291 11597 11638 11537 11489 11677 11314 11572 11686 11641 11664 11591 11566 11651 11599 11494 11562 11253 11619 11633 11625 11692 11642 11525 11709 11547 11690 11556 11602 11568 11314 11750 11747 11459 11606 11505 11504 11662 11682 11256 11563 11818 11685 11605 11255 11538 11613 11632 11501 11505 11659 11624 11637 11640 11213 11378 11567 11823 11635 11766 11538 11328 11491 11676 11595 11628 11408 11592 11576 11732 11696 11819 11792 11664 11792 11273 11450 11544 11425 11343 11655 11544 11564 11377 11504 11788 11640 11488 11493 11148 11697 11392 11184 11483 11533 11801 11342 11600 11241 11675 11737 11810 11220 11636 11322 11576 11490 11536 11231 11213 11272 11187 11531 11254 11599 11355 11277 11510 11468 11625 11787 11398 11756 11303 11263 11527 11680 11247

Tree=0
num_leaves=128
num_cat=15
split_feature=16 1 2 16 11 11 11 1 2 0 2 16 3 11 16 12 3 2 7 13 0 5 0 1 10 12 16 2 12 2 11 16 0 0 1 0 16 0 12 14 0 2 3 0 6 1 3 6 13 6 0 2 3 12 5 1 16 13 12 1 13 11 16 0 0 7 2 12 0 1 1 14 11 12 12 14 9 16 14 12 3 12 1 0 1 17 11 16 13 0 3 0 9 3 0 1 0 11 12 6 0 12 0 14 16 19 0 12 13 10 6 3 13 7 12 14 2 6 12 0 12 16 13 12 0 10 10
split_gain=4.53235e+14 2.13493e+14 1.5558e+14 1.09424e+14 7.77131e+13 6.24607e+13 3.12828e+13 2.93907e+13 2.39569e+13 1.5001e+13 1.47719e+13 1.14804e+13 1.12638e+13 8.13297e+12 7.75295e+12 6.10973e+12 4.66893e+12 3.67507e+12 3.42004e+12 3.37421e+12 3.36271e+12 3.22287e+12 3.20357e+12 3.16605e+12 3.0598e+12 2.9564e+12 2.84579e+12 2.59681e+12 2.35715e+12 2.19573e+12 2.19089e+12 2.36464e+12 1.82439e+12 1.6186e+12 1.60608e+12 1.48849e+12 1.48548e+12 1.39388e+12 2.03316e+12 1.25575e+12 1.14028e+12 1.02484e+12 9.88743e+11 9.81652e+11 9.47743e+11 9.34991e+11 8.36372e+11 9.00856e+11 8.1867e+11 7.67095e+11 7.45124e+11 7.44694e+11 7.10424e+11 6.91839e+11 6.67603e+11 6.63475e+11 6.25331e+11 6.18759e+11 5.72285e+11 5.10287e+11 4.9718e+11 4.94793e+11 5.83139e+11 4.39316e+11 4.25508e+11 4.2217e+11 4.14508e+11 3.91471e+11 5.87222e+11 3.86035e+11 3.55535e+11 3.5099e+11 3.44689e+11 3.43582e+11 3.40117e+11 3.35793e+11 3.34879e+11 3.87992e+11 3.27654e+11 3.13967e+11 3.05256e+11 2.93343e+11 2.93192e+11 2.90437e+11 2.91275e+11 2.90399e+11 2.88283e+11 4.12932e+11 2.84894e+11 4.10824e+11 2.82403e+11 2.68777e+11 2.47411e+11 2.40692e+11 2.3664e+11 2.35075e+11 2.21754e+11 2.81026e+11 2.20253e+11 2.19413e+11 2.06308e+11 1.98747e+11 1.93601e+11 1.92827e+11 1.86978e+11 1.85549e+11 1.74364e+11 1.73734e+11 1.62212e+11 1.61652e+11 2.14948e+11 1.66381e+11 1.54353e+11 1.48821e+11 1.48368e+11 1.47605e+11 1.45912e+11 1.44197e+11 1.42123e+11 1.88509e+11 1.40312e+11 1.34507e+11 1.33175e+11 1.32086e+11 2.18738e+11 1.3124e+11 1.3372e+11
threshold=0 1.5562911069368093 -1.4083130838452662 1 1.626539865935092 5.6853362083637657 1.626539865935092 1.5752135918578813 -1.4242832841926667 0.57936545950232121 -1.4823594335754133 2 2.3942365276744852 0.34318555089666064 3 -0.41055837556163816 3.4638572674479531 -1.4022121386965287 -0.0093420783791159524 -0.89329070205018402 0.57936545950232121 0.42636134860940317 1.0000000180025095e-35 1.095433986684101 -0.028046153331166727 0.68641280760146972 4 0.067074037076704549 0.11623569544889385 -1.4564682614082207 -0.071975933472513534 5 1.0000000180025095e-35 1.0000000180025095e-35 1.7592001434136217 1.0000000180025095e-35 6 0.28968272975116061 -0.63986873588386961 -0.52733962220023745 1.0000000180025095e-35 -1.1863302619478164 -0.34456814681273656 1.1587309190046426 1.2895224990194392 1.7146134614133179 0.18304746473471409 2.1971646186213016 -0.20509572282789718 -0.14175930496811309 0.28968272975116061 -0.46740727606111265 0.77781415411547672 -0.15026012870937533 4.1860964665023124 0.79659948975801453 7 0.56980098606018981 0.23398966426301293 1.3777620769467196 0.61315185089308966 -0.17773880594717575 8 0.57936545950232121 1.0000000180025095e-35 0.65424099846431516 -1.576217020201349 -0.25561894291148168 1.0000000180025095e-35 -0.82975347490643825 1.1363503988957502 1.0097071477117996 -0.19650565490183092 -0.18124801523940662 -0.94355002387817632 -0.020812845751952663 -0.059468570575789061 9 -1.1561314826187981 0.68641280760146972 0.58115742617506327 0.10384054083688138 1.477797408816045 1.1587309190046426 1.3144248277237125 10 -0.15521603296111638 11 1.2092262423454641 1.1587309190046426 -0.41171922464604843 0.57936545950232121 0.077404454868624226 -0.41171922464604843 1.1587309190046426 -0.34618014226799415 -1.0000000180025095e-35 0.27871262505429845 0.11623569544889385 2.232073930913681 0.28968272975116061 0.52527579764530696 0.57936545950232121 -1.1561314826187981 12 13 0.57936545950232121 1.1698238374699581 -0.20509572282789718 -0.04091564846246782 1.0102480006804047 2.1496147441388485 0.97621534386862696 -0.072777818606085051 -1.0489088380802827 -0.34103092281696035 -1.1482059540245511 0.59133625317185268 -0.20603832446343157 -0.8690481892534816 0.61204187992939474 14 -0.73072495892680911 0.61204187992939474 0.57936545950232121 -0.032812445610972359 0.013243160646866424
decision_type=9 2 2 9 2 2 2 2 2 2 2 9 2 2 9 2 2 2 2 2 2 2 2 2 2 2 9 2 2 2 2 9 2 2 2 2 9 2 2 2 2 2 2 2 2 2 2 2 2 2 2 2 2 2 2 2 9 2 2 2 2 2 9 2 2 2 2 2 2 2 2 2 2 2 2 2 2 9 2 2 2 2 2 2 2 9 2 9 2 2 2 2 2 2 2 2 2 2 2 2 2 2 2 2 9 1 2 2 2 2 2 2 2 2 2 2 2 2 2 2 2 9 2 2 2 2 2
left_child=1 4 7 6 -1 11 14 63 18 15 22 12 30 55 49 78 26 -10 29 -11 48 69 53 107 45 28 46 32 -17 40 52 42 39 -20 64 75 41 38 -36 -19 59 67 65 -22 -41 70 47 86 103 57 71 112 66 -6 117 -14 -44 -2 73 118 -23 72 105 108 -15 -32 -5 -26 -69 -18 -16 74 -48 -40 -51 -25 -28 80 -4 -50 -78 -46 -77 84 -35 -74 -13 93 89 -37 -33 -86 -68 -88 101 -76 97 -58 -42 -72 -31 -24 -62 -9 -92 113 -43 -12 -3 110 -87 -111 -34 -63 -52 -7 -82 -38 -8 -120 -83 -79 -102 124 -116 -54 -127
right_child=3 2 9 5 10 115 8 20 17 19 23 16 13 34 24 25 21 27 33 -21 43 60 94 35 36 -27 76 -29 -30 100 31 90 51 83 37 88 54 -39 58 44 98 106 56 -45 81 -47 61 -49 79 50 114 -53 125 -55 -56 -57 96 -59 -60 -61 102 62 -64 -65 -66 -67 92 68 -70 -71 99 -73 85 -75 95 82 77 121 -80 -81 116 120 -84 -85 91 109 87 -89 -90 -91 104 -93 -94 -95 -96 -97 -98 -99 -100 -101 122 -103 -104 -105 -106 -107 -108 -109 -110 111 -112 -113 -114 -115 123 -117 -118 -119 119 -121 -122 -123 -124 -125 -126 126 -128
leaf_value=17221.380562921582 30513.146649434515 33327.340183288681 103570.84874152733 19389.69229844596 56957.330045639872 46793.208964011996 30708.749469295486 65846.815573913686 16829.744494524894 94894.374016454007 31592.8273264214 16812.974123322907 17069.809971718634 27839.013489291159 19319.293777400599 116347.55260516368 20381.616201300931 24326.725586693388 39547.360499815746 72242.015373020826 46838.877114092254 21637.981014720459 41550.209792663685 41669.872223766048 22859.374248541986 110062.91931124477 16654.797872276326 20395.881164903076 139377.07535516369 36612.562647777318 17765.09234042266 16961.441524386293 21984.736594090082 29428.579974566666 27817.656865273973 33921.843623308843 21119.918506495633 26913.145803173356 39473.806403526774 26388.24021906397 28662.69429027653 21419.843839999408 18754.790301700064 59057.038532583043 29123.769131768411 20094.26857149884 18621.364832280018 20355.3176112646 73155.269315690006 22647.387284436652 19506.194646747565 26038.118026001084 18316.717466195241 65894.106317284895 16645.424991892603 20655.914695535303 19889.742351850764 24518.053513850253 34227.1360352232 28278.042089065195 26462.57833657532 19337.913363785934 17126.784750085193 30243.589961934515 23260.640822841378 20290.28993692786 16959.261204224109 29935.795152550978 23609.375130426928 18025.229165428307 16791.74134658292 22146.249182400097 18996.802723963374 48149.111730163684 23262.012838012801 42415.808594747017 16892.424413346929 16907.493860229883 95644.22485125743 66488.851393042482 16795.869913481991 34014.345435024792 49108.580265753961 36004.213189045258 37180.460151119565 17144.734393339444 16581.380935742607 17033.124186401754 41198.171042663686 39202.064843893189 18294.854996776463 30628.102966155064 18041.05503541245 18549.474428266672 50376.782396830349 26611.065323859613 19687.387389184187 21615.380210093288 25740.653600993493 18581.354113859939 36607.573173345503 47500.158054382431 22903.968320709871 59692.411980163684 17645.477909049703 17316.724689361061 19531.497469530001 35477.501265877967 36992.178073913681 16905.821486513265 18303.645646651505 17365.344250928971 23845.612062221149 17919.168662359316 27215.318849154064 44031.421617545762 18294.910579994481 19543.828297247979 36951.635353881938 32547.852987860155 29729.085676077142 16670.722885676194 32049.438720100123 20758.770114026494 22359.813538098464 17396.533642990362 18309.152533342269
leaf_weight=595 75 52 22 190 63 89 62 20 187 31 162 20361 198 101 199 20 193 324 194 35 35 202 25 127 227 37 105189 370 25 110 1332 1155 442 67 51 93 194 84 21 267 99 381 1321 31 111 386 378 191 38 96 58 192 1359 33 192 370 464 101 21 99 116 191 4639 60 102 189 8188 61 92 1748 1158 111 188 25 64 30 1139 12895 32 33 195 72 36 57 34 1326 195 6343 32 61 1507 29 565 764 30 289 958 480 185 201 22 32 57 35 4205 1357 180 35 72 9759 573 2468 149 5731 26 106 969 576 32 101 26 11717 59 105 215 1324 576
leaf_count=595 75 52 22 190 63 89 62 20 187 31 162 20361 198 101 199 20 193 324 194 35 35 202 25 127 227 37 105189 370 25 110 1332 1155 442 67 51 93 194 84 21 267 99 381 1321 31 111 386 378 191 38 96 58 192 1359 33 192 370 464 101 21 99 116 191 4639 60 102 189 8188 61 92 1748 1158 111 188 25 64 30 1139 12895 32 33 195 72 36 57 34 1326 195 6343 32 61 1507 29 565 764 30 289 958 480 185 201 22 32 57 35 4205 1357 180 35 72 9759 573 2468 149 5731 26 106 969 576 32 101 26 11717 59 105 215 1324 576
internal_value=17435.5 41485.6 67049.3 17225.2 30750.5 17006.8 22862.6 48035.7 26653.6 102441 41356.4 16981 17992.6 23265.9 20372.5 111933 16848.2 23525.9 32473.9 82881.8 61720.5 19079.4 53731.6 37424.7 19281.6 120533 16820.5 24167.1 129142 30554.7 17777.4 18269 25048.5 36347.8 28679.5 40097.2 20711.7 31835.9 35340.2 26727.8 29018.8 22122.2 19126.1 52577.7 28362.2 17891.3 17124.8 16933.3 66509.5 23979.9 23483.1 23332.8 17309.6 60029.3 19264.2 19405.8 19625.5 27072.8 41066.4 31201.5 23322.8 17325.2 17564.6 33755.8 25538.6 18078.9 17079.2 24176.9 26131.7 18259.5 17345.5 24663.8 17131.1 44188.6 25286.2 43173.4 16695.1 16852.4 98873.6 70056.8 17474.2 30883.9 46066.4 33028.4 31723.6 17091.7 16909.6 17179.2 36905.4 36013.4 17674.1 34164.3 17029.1 18141.9 46782.3 26003.9 20208.7 20767.2 26759.3 17056.4 35202.4 44890.5 25290.1 61930.4 17818.7 17843.5 20814 32283 35455.3 17065.5 17494.4 16998.6 22453.9 17964.9 21846.5 45291.9 18043.8 19940.9 32685.8 33607.4 32877.4 16794.5 33287.5 22238.8 22883.6 17941.5 17673.2
internal_weight=224074 1932 578 222142 1354 213865 8277 376 3290 202 759 213670 24786 973 4987 136 188884 2140 1150 66 192 2316 183 576 3847 82 186568 1953 45 769 23813 11611 1583 381 405 379 1903 202 118 800 578 941 4744 66 476 1944 54464 27854 126 1140 964 783 12202 96 962 568 3223 176 67 294 375 26610 11918 184 203 1521 8943 380 153 1941 1558 560 14692 46 449 193 132104 26915 54 71 2303 209 66 187 130 14314 27663 7302 186 154 6867 63 8753 959 87 353 1902 944 284 1359 191 57 173 55 5712 7279 561 197 124 14126 1899 12227 591 5922 404 195 1164 770 195 133 98 24612 81 346 241 3259 1900
internal_count=224074 1932 578 222142 1354 213865 8277 376 3290 202 759 213670 24786 973 4987 136 188884 2140 1150 66 192 2316 183 576 3847 82 186568 1953 45 769 23813 11611 1583 381 405 379 1903 202 118 800 578 941 4744 66 476 1944 54464 27854 126 1140 964 783 12202 96 962 568 3223 176 67 294 375 26610 11918 184 203 1521 8943 380 153 1941 1558 560 14692 46 449 193 132104 26915 54 71 2303 209 66 187 130 14314 27663 7302 186 154 6867 63 8753 959 87 353 1902 944 284 1359 191 57 173 55 5712 7279 561 197 124 14126 1899 12227 591 5922 404 195 1164 770 195 133 98 24612 81 346 241 3259 1900
cat_boundaries=0 5 10 16 20 27 32 35 39 46 51 52 57 63 64 70
cat_threshold=0 65536 0 2048 1073741824 805372936 16 66 805310466 2348810240 67639889 4026531840 675282944 3289400624 805306369 2147483684 1032 16 0 536875008 1073742114 1 2165309448 151102145 2097264 1409617930 6 67110993 2415919104 4194304 3222275104 1 0 0 66 2112 268435456 0 1073742848 32 1 2147483648 134283265 48 1342177280 6 4 256 256 0 42074240 128 256 0 0 0 2097168 4096 0 134217728 16384 536870912 4 2 2315255808 278562 268534321 42336256 262400 683149376
is_linear=0
shrinkage=1


Tree=1
num_leaves=128
num_cat=13
split_feature=16 1 2 16 4 11 11 1 2 0 2 16 3 4 16 12 3 2 7 0 0 5 0 1 10 16 12 2 12 2 11 16 0 0 1 0 16 0 12 13 0 6 2 3 0 1 4 13 4 6 0 2 5 12 5 1 12 13 16 9 16 1 13 0 10 16 15 0 2 4 3 11 11 5 1 1 1 12 13 3 12 0 1 13 0 12 1 0 12 3 12 0 2 9 3 0 11 12 6 15 0 9 16 2 12 0 13 15 12 0 13 12 16 2 16 9 12 13 12 6 13 1 12 12 15 15 7
split_gain=4.09044e+14 1.92677e+14 1.40411e+14 9.87554e+13 7.01361e+13 5.63708e+13 2.82327e+13 2.65251e+13 2.16211e+13 1.35384e+13 1.33316e+13 1.03683e+13 1.00652e+13 7.34001e+12 6.99704e+12 5.51403e+12 4.19825e+12 3.31675e+12 3.08659e+12 3.05661e+12 3.03485e+12 2.90864e+12 2.89123e+12 2.85736e+12 2.76147e+12 2.6779e+12 2.66815e+12 2.34362e+12 2.12733e+12 1.98165e+12 1.96919e+12 1.91717e+12 1.64651e+12 1.46078e+12 1.44949e+12 1.34336e+12 1.34065e+12 1.25798e+12 1.84002e+12 1.0808e+12 1.0291e+12 9.92918e+11 9.2492e+11 9.21876e+11 8.85941e+11 8.43829e+11 7.70302e+11 7.38849e+11 7.24978e+11 6.92303e+11 6.72475e+11 6.72086e+11 6.56128e+11 6.24384e+11 6.02512e+11 5.98786e+11 5.76856e+11 5.5843e+11 5.36538e+11 4.67548e+11 4.71491e+11 4.60534e+11 4.48705e+11 4.03201e+11 3.98038e+11 4.13431e+11 3.9144e+11 3.84021e+11 3.82561e+11 3.81009e+11 3.66653e+11 3.73672e+11 3.58346e+11 4.22977e+11 3.48396e+11 3.2087e+11 3.20868e+11 3.06885e+11 2.86323e+11 2.84924e+11 2.83356e+11 2.6212e+11 2.62876e+11 2.57117e+11 3.70769e+11 2.54162e+11 2.45416e+11 2.42571e+11 2.32969e+11 2.22949e+11 2.1481e+11 2.13568e+11 2.05377e+11 2.44546e+11 3.13981e+11 2.00133e+11 2.53626e+11 1.98778e+11 1.98021e+11 1.90421e+11 1.86193e+11 1.85913e+11 1.82782e+11 1.8274e+11 1.7937e+11 1.74725e+11 1.687e+11 1.67312e+11 1.65957e+11 1.5781e+11 1.57523e+11 1.56795e+11 1.52679e+11 1.52643e+11 1.62487e+11 1.51055e+11 1.48143e+11 1.39304e+11 1.33902e+11 1.30138e+11 1.28985e+11 1.28564e+11 1.28479e+11 1.28266e+11 2.00127e+11 1.31675e+11 1.28063e+11
threshold=0 1.5562911069368093 -1.4083130838452662 1 0.27687679137037841 5.6853362083637657 1.626539865935092 1.5752135918578813 -1.4242832841926667 0.57936545950232121 -1.4823594335754133 2 2.3942365276744852 2.9525090691525886 3 -0.41055837556163816 3.4638572674479531 -1.4022121386965287 -0.0093420783791159524 1.1587309190046426 0.57936545950232121 0.42636134860940317 1.0000000180025095e-35 1.095433986684101 -0.028046153331166727 4 0.68641280760146972 0.067074037076704549 0.11623569544889385 -1.4564682614082207 -0.071975933472513534 5 1.0000000180025095e-35 1.0000000180025095e-35 1.7592001434136217 1.0000000180025095e-35 6 0.28968272975116061 -0.62127600396585092 -0.62776665494867157 1.0000000180025095e-35 1.2895224990194392 -1.1863302619478164 -0.34456814681273656 1.1587309190046426 1.7146134614133179 -0.37095457273609356 -0.20509572282789718 0.91139655210479964 -0.14175930496811309 0.28968272975116061 -0.46740727606111265 -0.40213118036340539 -0.15026012870937533 4.1860964665023124 0.79659948975801453 0.23398966426301293 0.56980098606018981 7 -0.059468570575789061 8 1.3777620769467196 0.61315185089308966 0.28968272975116061 0.032417957861696663 9 -0.5103839797258517 1.0000000180025095e-35 -1.576217020201349 1.4039258768706793 0.47083779830605083 -0.17513045020972248 -0.17773880594717575 -0.31974505993573671 -0.82975347490643825 1.1363503988957502 -0.34618014226799415 -0.94355002387817632 0.017077459440715183 -0.41171922464604843 0.68641280760146972 1.1587309190046426 1.3144248277237125 1.2092262423454641 1.1587309190046426 1.2441947651420333 1.477797408816045 0.57936545950232121 0.04186476777681878 1.5644410658771306 0.10384054083688138 1.1587309190046426 -1.4959754502318667 -0.060685039446297682 0.77781415411547672 -1.0000000180025095e-35 0.27871262505429845 0.11623569544889385 2.232073930913681 -0.87225070252036851 0.28968272975116061 0.096499869938650437 10 -1.5684649141801286 0.52527579764530696 0.57936545950232121 -1.3376370665874087 0.53161778832101025 0.61204187992939474 0.28968272975116061 -0.66027980357334659 1.1698238374699581 11 0.57737405883338533 12 -0.061277664137486816 -0.1316673967913565 0.97621534386862696 -1.0489088380802827 0.59133625317185268 0.62398956710131481 -0.2637842585372871 -0.23082863368745651 -0.20603832446343157 0.10871330505512895 -0.27059277787406338 -0.051845056743595734
decision_type=9 2 2 9 2 2 2 2 2 2 2 9 2 2 9 2 2 2 2 2 2 2 2 2 2 9 2 2 2 2 2 9 2 2 2 2 9 2 2 2 2 2 2 2 2 2 2 2 2 2 2 2 2 2 2 2 2 2 9 2 9 2 2 2 2 9 2 2 2 2 2 2 2 2 2 2 2 2 2 2 2 2 2 2 2 2 2 2 2 2 2 2 2 2 2 2 2 2 2 2 2 2 9 2 2 2 2 2 2 2 2 2 9 2 9 2 2 2 2 2 2 2 2 2 2 2 2
left_child=1 4 7 6 -1 11 14 63 18 15 22 12 30 34 49 106 25 -10 29 -11 47 74 53 111 45 46 28 32 -17 40 48 79 39 -20 67 78 42 38 -36 -19 61 -41 66 69 -22 75 -13 -9 68 57 76 117 -48 -6 119 -15 116 107 120 -27 70 123 -23 88 65 72 108 -14 -5 -33 -61 -72 92 115 -18 -16 -51 -78 -25 -32 -49 82 -35 84 -37 -79 -80 -84 -3 103 99 104 121 94 -94 96 -60 -42 -77 -43 -31 -70 -66 -75 -24 -64 -4 -2 -26 110 -44 -12 -81 114 -50 -74 -40 -34 -52 -38 -45 -54 -7 125 -125 -8 -105
right_child=3 2 9 5 10 122 8 20 17 19 23 16 13 55 24 26 21 27 33 -21 44 62 91 35 36 59 -28 -29 -30 100 31 43 51 81 37 83 54 -39 56 41 97 90 109 58 -46 -47 52 80 113 50 118 -53 64 -55 -56 -57 -58 -59 95 60 -62 -63 105 -65 102 -67 -68 -69 101 -71 71 -73 73 89 -76 98 77 85 86 112 -82 -83 87 -85 -86 -87 -88 -89 -90 -91 -92 -93 93 -95 -96 -97 -98 -99 -100 -101 -102 -103 -104 126 -106 -107 -108 -109 -110 -111 -112 -113 -114 -115 -116 -117 -118 -119 -120 -121 -122 -123 -124 124 -126 -127 -128
leaf_value=-201.37463644268132 10156.870986077725 15509.562072753906 80871.529761904763 1858.5215044202303 37547.779117063496 27823.629279891305 9391.9746930803576 42272.172102272729 -573.42889188878678 51415.842897727271 13451.49999517747 -638.04124215878994 9885.3767597462866 -345.36668687300249 1791.6429018720312 93968.489843750009 2800.8492005343269 6537.330008860823 21008.305472777065 72936.130871212124 27935.247901785719 3994.3957554430071 22911.012812500001 23048.661433531746 5060.0972679781626 -735.61322144778921 87998.087077702701 2814.4008666414829 115846.53375 18220.247990056818 -448.31671686791753 315.15156025292282 4323.813624538232 11395.46461637127 10214.278971354168 15664.064952956991 3502.2363089964565 9005.8025065104175 23060.211309523813 8410.4025103802451 10667.873731455176 9144.8901785714297 2448.960524478201 1811.7794956042217 39542.500504032265 2527.8689933816386 2775.8654897160559 52935.821628289472 833.72221818379228 4448.2143451482598 1969.1987311527646 8174.5257792154953 -569.01672534194881 46037.714962121216 -748.53242085774741 3061.4328244430958 15954.093173363095 6730.4648128094068 2333.5690611280243 -494.72263552328161 -644.25684103741025 10302.453823390153 8577.763358701508 12684.697593750001 1035.0255439091864 -456.64329418269784 9669.66270982897 5535.9226102941175 -478.77738523938126 2714.0892892585234 -315.70975682081354 644.30763029199375 1836.0410066227068 686.11337105626444 562.28154610234492 -609.53188694375785 4953.3317301432289 8684.0026492470188 23733.331979166669 1391.1004208144539 46602.722537878792 17642.31559758772 18759.750068933823 22576.576562500002 20680.275230532789 4837.1530564880368 29818.848078547297 12535.01155711207 20204.568281250002 848.65924843321466 14671.881425382655 31296.256718750003 -28.932668101271691 -298.43190691321763 1194.1622268753606 2141.3318451023238 3972.9250405009589 7891.9345898437505 1090.6002492564828 13449.668880208335 15061.391753472222 453.73479108777315 -1.9351176869899878 -268.11911396896016 28563.463769531252 5197.083792863813 75138.847253787884 14883.812456597223 8050.9260108278513 2209.2526341624075 4728.1976792533451 17141.939687500002 342.11897374195252 -256.79364764636688 -19.643456107568234 628.01443431257121 28931.375426136365 6091.6454829068789 4565.1855802591135 2004.950743655364 740.78998083761508 -130.11132809487879 25252.694083737864 14525.510386439733 19844.514522879464 14260.715917968751 147.52476886745319
leaf_weight=595 39 64 21 190 63 92 21 55 187 33 162 10181 101 198 199 20 193 313 194 33 35 202 25 126 249 110197 37 370 25 110 1155 1332 442 67 54 93 194 84 21 286 99 49 118 520 31 386 191 38 2322 110 58 192 5159 33 192 370 21 101 464 5173 21128 99 116 75 957 10763 74 102 7417 189 2136 1929 389 773 1748 1158 96 304 30 369 33 57 34 32 61 50 37 29 45 752 98 30 1710 3640 757 958 480 185 201 54 81 576 768 5156 32 57 33 36 57 231 212 35 4587 577 742 773 22 149 346 576 612 2466 103 112 21 41 2893
leaf_count=595 39 64 21 190 63 92 21 55 187 33 162 10181 101 198 199 20 193 313 194 33 35 202 25 126 249 110197 37 370 25 110 1155 1332 442 67 54 93 194 84 21 286 99 49 118 520 31 386 191 38 2322 110 58 192 5159 33 192 370 21 101 464 5173 21128 99 116 75 957 10763 74 102 7417 189 2136 1929 389 773 1748 1158 96 304 30 369 33 57 34 32 61 50 37 29 45 752 98 30 1710 3640 757 958 480 185 201 54 81 576 768 5156 32 57 33 36 57 231 212 35 4587 577 742 773 22 149 346 576 612 2466 103 112 21 41 2893
internal_value=2.02432 22849.6 47135.1 -197.704 12651.3 -405.203 5157.77 29072.2 8759.28 80757.2 22726.9 -429.745 561.816 5540.89 2792.15 89774.6 -552.06 5787.93 14288.6 62176 42072.8 1563.71 34483.3 18991.7 1755.86 -578.169 97944.7 6397.03 106123 12465.3 346.653 839.26 7234.41 17968.7 10683.8 21530.7 3114.39 13682.4 17011.5 8829.73 11006.2 10303.1 4454.38 1614.33 33387.1 435.014 -252.68 46622.4 -97.71 6219.22 5747.29 5604.46 -147.131 40466.2 1739.27 1873.85 22746.7 9157.46 2121.51 -687.695 -514.028 13079.8 5594.99 15506.4 -162.238 -198.547 6406.37 7699.94 -358.869 613.244 -215.256 139.856 -84.7944 131.576 784.87 -83.4983 6868.96 7460.7 24453 258.478 49992.3 14815.3 13575.7 18498.4 17651 8140.66 27094 15894.4 17447.9 22.2399 12996.1 27881.5 -254.02 -37.9542 346.375 2636.6 3167.14 8859.6 -358.077 11401.8 16880.6 -411.578 579.342 -48.2053 26084.3 7463.9 77368.2 12425.8 5617.21 3211.57 3913.2 14107.2 423.718 489.233 629.722 1032.42 26064.1 4769.51 4192.49 2382.19 1221.97 -427.07 26465.6 14489.8 15365.4 12611.6 -118.727
internal_weight=224074 1932 578 222142 1354 213865 8277 376 3290 202 759 213670 23463 973 4987 136 190207 2140 1150 66 192 2316 183 576 3847 187891 82 1953 45 769 22490 10666 1583 381 405 379 1903 202 118 800 578 487 941 4555 66 1944 47328 126 11824 1140 964 783 37147 96 962 568 64 176 3034 140563 30366 294 375 184 36956 35231 380 203 8183 1521 9238 4065 24468 10736 1941 1558 560 450 193 6111 71 187 130 186 154 354 67 63 109 9574 201 87 13732 6107 2467 1902 944 284 1359 103 191 7993 1725 8822 57 173 54 75 306 561 330 197 4956 3641 3064 1162 43 591 404 770 1132 7625 195 195 133 62 8049
internal_count=224074 1932 578 222142 1354 213865 8277 376 3290 202 759 213670 23463 973 4987 136 190207 2140 1150 66 192 2316 183 576 3847 187891 82 1953 45 769 22490 10666 1583 381 405 379 1903 202 118 800 578 487 941 4555 66 1944 47328 126 11824 1140 964 783 37147 96 962 568 64 176 3034 140563 30366 294 375 184 36956 35231 380 203 8183 1521 9238 4065 24468 10736 1941 1558 560 450 193 6111 71 187 130 186 154 354 67 63 109 9574 201 87 13732 6107 2467 1902 944 284 1359 103 191 7993 1725 8822 57 173 54 75 306 561 330 197 4956 3641 3064 1162 43 591 404 770 1132 7625 195 195 133 62 8049
cat_boundaries=0 5 10 16 20 27 33 36 40 46 53 60 66 72
cat_threshold=0 65536 0 2048 1073741824 805372936 16 66 805310466 2348810240 67639889 3758096384 675282944 3222291744 805306369 2147483684 1032 16 0 536875008 1073742114 268435457 17825800 83960529 2097264 1409617930 6 528896 1073741824 671088640 16640 536870912 36 0 0 66 2112 0 0 1073742848 4 16642 2147549952 134250496 42336384 8390656 288 1 16777216 67117137 48 67108864 4 0 268435456 0 0 2097152 1342177280 2 0 0 134217728 0 0 4 0 536870912 0 2147483648 268435456 2147483648
is_linear=0
shrinkage=0.05


Tree=2
num_leaves=128
num_cat=15
split_feature=16 4 5 16 11 11 10 2 2 0 16 3 4 16 13 4 15 3 2 7 13 0 5 0 10 16 2 2 11 16 0 0 2 0 16 0 12 14 0 2 3 0 12 3 4 13 4 19 0 2 5 12 5 2 13 16 13 2 2 15 9 16 0 10 16 15 0 2 4 2 4 11 5 2 14 12 14 12 10 3 12 2 12 0 2 13 0 14 0 11 3 14 19 2 9 3 11 12 0 11 14 0 9 16 2 15 12 0 0 0 2 16 9 12 16 7 7 12 13 14 15 0 12 0 13 14 9
split_gain=3.69162e+14 1.66619e+14 1.93636e+14 8.91265e+13 5.08746e+13 2.548e+13 2.48062e+13 1.95131e+13 1.42076e+13 1.22184e+13 9.35831e+12 9.08362e+12 6.62436e+12 6.31483e+12 5.00978e+12 3.78996e+12 3.50168e+12 3.12308e+12 2.99337e+12 2.78565e+12 2.76487e+12 2.73895e+12 2.69558e+12 2.60933e+12 2.49222e+12 2.43395e+12 2.11512e+12 1.78844e+12 1.77738e+12 1.72986e+12 1.48597e+12 1.31836e+12 1.30817e+12 1.21239e+12 1.20993e+12 1.13532e+12 1.66455e+12 1.03124e+12 9.28767e+11 8.34741e+11 8.31993e+11 7.99562e+11 7.97867e+11 7.61637e+11 6.9522e+11 6.66811e+11 6.54474e+11 6.24804e+11 6.06908e+11 6.06558e+11 5.92152e+11 5.63507e+11 5.43767e+11 5.40404e+11 5.03983e+11 4.86505e+11 4.75509e+11 4.27e+11 4.15632e+11 4.09637e+11 3.96062e+11 4.46088e+11 3.71278e+11 3.59526e+11 3.73197e+11 3.53274e+11 3.46579e+11 3.45261e+11 3.4386e+11 3.43156e+11 3.37976e+11 3.33206e+11 3.75916e+11 3.20073e+11 2.94996e+11 2.79098e+11 2.75066e+11 2.69476e+11 2.59515e+11 2.57252e+11 2.55728e+11 2.39886e+11 2.38213e+11 2.36563e+11 2.37245e+11 2.32048e+11 3.34619e+11 2.31577e+11 2.1892e+11 2.01411e+11 1.98426e+11 1.96458e+11 1.9117e+11 1.85353e+11 2.20703e+11 2.83368e+11 1.84851e+11 1.79397e+11 1.79328e+11 1.96122e+11 1.74026e+11 1.68039e+11 1.67787e+11 1.65141e+11 1.62894e+11 1.50999e+11 1.49776e+11 1.489e+11 1.48149e+11 1.44684e+11 1.37804e+11 1.46714e+11 1.36327e+11 1.34755e+11 1.31094e+11 1.27981e+11 2.00577e+11 1.26631e+11 1.25722e+11 1.24679e+11 1.2188e+11 1.21384e+11 1.20847e+11 1.20759e+11 1.20362e+11 1.19731e+11 1.19469e+11
threshold=0 0.27687679137037841 -0.049507263917059452 1 5.6853362083637657 1.626539865935092 -0.025056679493249006 -1.4242832841926667 -1.4823594335754133 0.57936545950232121 2 2.3942365276744852 2.9525090691525886 3 -0.20509572282789718 3.2631131478337738 -1.1556403047088457 0.7010700651631202 -1.4022121386965287 -0.0093420783791159524 -0.89329070205018402 0.57936545950232121 0.42636134860940317 1.0000000180025095e-35 -0.028046153331166727 4 0.067074037076704549 -1.4564682614082207 -0.071975933472513534 5 1.0000000180025095e-35 1.0000000180025095e-35 -1.296004515202178 1.0000000180025095e-35 6 0.28968272975116061 -0.63986873588386961 -0.52733962220023745 1.0000000180025095e-35 -1.1863302619478164 -0.34456814681273656 1.1587309190046426 0.33934847846511912 0.46124478718700629 -0.37095457273609356 -0.20509572282789718 0.91139655210479964 7 0.28968272975116061 -0.46740727606111265 -0.40213118036340539 -0.15026012870937533 4.1860964665023124 -1.2465316412300564 0.56980098606018981 8 0.35304666189568995 -1.1863302619478164 -1.4743218087083798 -1.3213142259882631 -0.059468570575789061 9 0.57936545950232121 0.032417957861696663 10 -0.5103839797258517 1.0000000180025095e-35 -1.576217020201349 1.4039258768706793 -1.3840768435541813 1.1909402229178665 -0.17773880594717575 -0.31974505993573671 0.48752747327631663 1.0097071477117996 -0.94355002387817632 -0.020812845751952663 -0.18124801523940662 -0.03839588884957694 -0.41171922464604843 0.68641280760146972 -1.4242832841926667 0.10384054083688138 1.1587309190046426 -1.4616593172539809 1.2092262423454641 1.1587309190046426 -1.1561314826187981 0.57936545950232121 -0.17476246641273738 1.5644410658771306 -0.51569532848878274 11 -1.4959754502318667 -0.060685039446297682 0.77781415411547672 -0.14491248664553327 0.11623569544889385 1.0000000180025095e-35 0.27871262505429845 -1.1561314826187981 0.28968272975116061 0.096499869938650437 12 -1.5684649141801286 0.53161778832101025 0.61204187992939474 -0.28968272975116049 1.0000000180025095e-35 0.57936545950232121 0.57737405883338533 13 -0.061277664137486816 0.10384054083688138 14 -0.051845056743595734 -0.024498132661041026 0.61204187992939474 0.97621534386862696 0.96312997286598045 0.75396963003812301 -0.28968272975116049 -1.0489088380802827 1.448413648755803 -0.7524003913432592 0.45660319641769548 0.14620856948602021
decision_type=9 2 2 9 2 2 2 2 2 2 9 2 2 9 2 2 2 2 2 2 2 2 2 2 2 9 2 2 2 9 2 2 2 2 9 2 2 2 2 2 2 2 2 2 2 2 2 1 2 2 2 2 2 2 2 9 2 2 2 2 2 9 2 2 9 2 2 2 2 2 2 2 2 2 2 2 2 2 2 2 2 2 2 2 2 2 2 2 2 2 2 2 1 2 2 2 2 2 2 2 2 2 2 9 2 2 2 2 2 2 2 9 2 2 9 2 2 2 2 2 2 2 2 2 2 2 2
left_child=1 -1 9 5 10 13 21 19 23 14 11 28 32 47 87 25 -16 33 -9 27 -11 45 73 51 43 44 30 38 46 79 37 -21 35 76 39 36 -13 -20 58 65 68 -23 -18 -15 -12 100 67 48 74 118 -46 -8 126 -14 105 98 77 69 -7 -24 -27 70 107 64 71 106 -34 -5 -31 -39 -62 93 112 113 75 -2 -10 -38 -45 -30 -47 -78 -71 84 125 86 -35 -3 -86 -72 104 -25 -80 -52 95 -95 -77 -40 99 -42 -4 -29 -69 -65 -74 -49 -26 -19 114 -41 111 120 -73 -17 -81 -106 -117 -84 -32 -57 -48 -6 -50 -124 -103 -33 -36
right_child=3 2 6 4 121 7 8 18 17 20 15 12 53 24 16 22 42 62 26 31 -22 41 59 91 34 60 -28 101 29 40 49 83 66 85 52 -37 56 57 97 109 55 -43 -44 78 50 80 110 54 122 -51 63 -53 -54 -55 -56 119 -58 -59 -60 -61 61 -63 -64 103 -66 -67 -68 102 -70 82 89 72 90 -75 -76 96 81 -79 92 108 -82 -83 117 -85 88 -87 -88 -89 -90 -91 -92 -93 -94 94 -96 -97 -98 -99 -100 -101 -102 124 -104 -105 115 -107 -108 -109 -110 -111 -112 -113 -114 -115 -116 116 -118 -119 -120 -121 -122 -123 123 -125 -126 -127 -128
leaf_value=-191.30590139757686 4705.6652365366617 77813.101704545465 43879.180468750004 1765.5954624537419 26606.788433689027 13765.318847155449 35670.388764880954 -544.75745529745996 21869.593774606299 69941.163911290336 -606.13917735620248 9354.3738970588238 2908.3612174039276 -588.71379483461385 81453.438571428575 109.76844651493025 95422.89732142858 14227.333280764753 6212.360191213349 19957.89118274807 49435.950089285718 26538.485401785718 7624.5295017993358 30836.24609375 4807.0924877243351 -698.83255832965301 2673.6809257569184 17309.235490056817 -425.9008820840084 299.39399569541132 4107.6229839618391 12728.937119932432 9391.1080020111385 14880.86179435484 1640.2737117638528 8555.5122419084819 19877.175874255954 8199.2876588541676 10134.479993292298 3602.9099817751589 2242.4131256763353 37565.375453629029 108768.13385416668 2401.4755269282841 2637.072317265216 50289.029358552631 536.49465011005918 9649.02734375 1870.7388473444971 7765.7997184753422 -405.71688306392298 43735.830113636366 -711.10579630533857 -328.09835264466028 6393.9415653039914 1636.5986899429645 14884.871660156252 8047.9776906331381 9787.3310487689396 4132.6650319868522 -341.10882233401219 -623.98790389968553 11836.390692667323 983.80943640429837 -430.45740239749057 9186.179385293497 5259.1265165441182 -454.83851798523528 2578.3847923803587 10555.684983811938 -92.598487994507082 1744.2389595051352 651.80770517203666 2660.8067077458836 4217.4598466203015 5314.8152792930605 28600.522981770831 27492.401412259613 -532.2261533794981 1183.5432354616107 44272.587547348492 22546.666302083337 15018.347781032988 16760.199972587721 17821.762637867647 21447.747387695315 19646.26119364754 71229.543841911756 11908.261045258621 1050.1100995241416 806.22628036255537 25189.317677238807 1367.4005368833541 -27.486024914345549 -283.51031129192194 1134.4541035693735 8284.6260334582475 7497.3378267525331 2081.9014585332147 3774.2787749481199 38032.498437499999 17566.221800595238 431.04805240664223 -1.8396057680517359 -254.71315831798884 14139.621875000001 7648.37968064693 16740.263188844088 130.6558946565452 1882.7738313802085 -243.95397418367594 -18.674356805263681 596.61370739079382 942.77510562700104 407.10582862517481 604.88235212060715 -259.59197804232218 10947.350931490386 5787.0632497902689 626.99587921606417 1302.0219811338809 24079.686642699118 3971.1546300252285 6722.3933466372291 13168.056705729166 8478.3554101562513 2885.8852673835263
leaf_weight=595 96 22 20 190 82 195 63 187 127 31 10181 51 370 960 35 972 21 161 324 194 35 35 127 20 249 110197 370 110 1155 1332 442 37 101 93 385 84 21 75 99 381 370 31 24 386 191 38 1536 39 58 192 7625 33 192 198 101 852 20 192 99 248 7890 20739 127 957 10972 74 102 7417 189 111 786 389 773 193 111 64 36 26 198 838 33 30 72 57 34 32 61 34 29 757 752 67 400 1710 3640 757 289 185 855 480 35 21 576 768 5156 36 57 93 2490 180 577 742 773 970 1628 1337 1347 26 149 477 786 113 300 46 60 30 385
leaf_count=595 96 22 20 190 82 195 63 187 127 31 10181 51 370 960 35 972 21 161 324 194 35 35 127 20 249 110197 370 110 1155 1332 442 37 101 93 385 84 21 75 99 381 370 31 24 386 191 38 1536 39 58 192 7625 33 192 198 101 852 20 192 99 248 7890 20739 127 957 10972 74 102 7417 189 111 786 389 773 193 111 64 36 26 198 838 33 30 72 57 34 32 61 34 29 757 752 67 400 1710 3640 757 289 185 855 480 35 21 576 768 5156 36 57 93 2490 180 577 742 773 970 1628 1337 1347 26 149 477 786 113 300 46 60 30 385
internal_value=1.92864 21707.1 31614.9 -187.813 -384.937 4899.88 23587.5 8321.31 20252.1 76719.4 -408.252 533.78 5263.84 2652.54 85285.9 -524.457 93314.8 17240.5 5498.53 13574.1 59067.2 39969.1 1405.55 32759.2 1668.07 -550.294 6077.18 11842 329.377 797.379 6872.69 17070.2 10149.6 20454.2 2958.67 12998.3 16161 8388.25 10455.9 4231.66 1533.61 31717.8 102540 413.263 -240.04 44291.3 -92.7901 5908.25 5459.92 5324.23 -139.766 38442.9 1652.3 1780.16 8699.58 2015.44 21342.1 9869.31 12425.8 5315.24 -654.839 -494.376 14043.7 -154.118 -188.626 6086.06 7314.94 -340.925 582.582 11100.6 -208.535 -79.0396 132.571 718.84 6525.51 7096.1 23230.3 24089.9 1390.8 245.695 47492.7 25848.8 12141.8 14074.5 12896.9 17573.5 16768.5 73815.9 15099.7 468.017 27.3236 26487.5 738.427 -241.319 -36.0565 329.056 7746.19 8416.62 2578.06 3107.47 40158.6 16036.6 -390.999 550.674 -40.6823 11804.5 5336.35 15147.4 402.707 3050.99 464.883 598.369 980.802 525.843 677.406 -108.96 171.035 13938.3 4531.04 1264.72 792.215 25142.4 3982.87 4336.93 14308.3 10825.7 2263.08
internal_weight=224074 1932 1337 222142 213865 8277 1135 3290 943 202 213670 23463 973 4987 136 190207 80 760 2140 1150 66 192 2510 183 3847 187697 1953 769 22490 10666 1583 381 405 379 1903 202 118 800 578 941 4555 66 45 1944 47328 126 11824 1140 964 783 37147 96 962 568 176 3034 67 476 294 375 140369 30172 381 36956 35231 380 203 8183 1521 284 9433 24259 10527 2135 560 449 193 47 984 6111 71 66 209 187 130 186 154 56 63 1543 9365 87 598 13732 6107 2467 353 284 1705 850 55 191 7993 1725 8613 75 306 254 4956 561 3641 3064 1162 1942 2466 7840 2684 98 591 1329 2322 195 404 346 81 67 770
internal_count=224074 1932 1337 222142 213865 8277 1135 3290 943 202 213670 23463 973 4987 136 190207 80 760 2140 1150 66 192 2510 183 3847 187697 1953 769 22490 10666 1583 381 405 379 1903 202 118 800 578 941 4555 66 45 1944 47328 126 11824 1140 964 783 37147 96 962 568 176 3034 67 476 294 375 140369 30172 381 36956 35231 380 203 8183 1521 284 9433 24259 10527 2135 560 449 193 47 984 6111 71 66 209 187 130 186 154 56 63 1543 9365 87 598 13732 6107 2467 353 284 1705 850 55 191 7993 1725 8613 75 306 254 4956 561 3641 3064 1162 1942 2466 7840 2684 98 591 1329 2322 195 404 346 81 67 770
cat_boundaries=0 5 10 16 20 27 33 36 37 42 48 55 56 63 69 75
cat_threshold=0 65536 0 2048 1073741824 805372936 16 66 805310466 2348810240 67639889 3758096384 675282944 3222291744 805306369 2147483684 1032 16 0 536875008 1073742114 268435457 17825800 83960529 2097264 1409617930 6 528896 1073741824 671088640 16640 536870912 36 0 0 66 2 17 0 4194304 2148532224 1 2147483652 16642 2147549952 134250496 42336384 8390656 288 1 0 67117137 48 67108864 4 2 0 268435456 0 0 2097152 1342177280 2 0 536870912 0 2147483648 268435456 2147483648 528384 0 134217728 16384 536870912 4
is_linear=0
shrinkage=0.05


Tree=3
num_leaves=128
num_cat=16
split_feature=16 1 2 16 11 11 11 1 2 0 2 16 3 11 16 12 3 2 7 0 0 5 0 1 12 10 16 2 12 11 2 16 0 0 0 6 1 12 0 0 5 3 12 3 14 12 6 6 0 3 13 6 12 2 2 1 12 12 7 13 16 3 0 0 9 16 13 1 11 16 0 3 11 17 7 1 1 0 3 14 12 1 11 0 1 12 12 0 16 1 12 11 0 9 3 16 19 12 14 1 12 12 14 9 3 0 16 14 0 0 9 16 5 12 13 12 0 0 14 0 15 3 0 5 16 12 15
split_gain=3.33169e+14 1.5708e+14 1.1429e+14 8.04366e+13 5.70843e+13 4.59143e+13 2.29957e+13 2.15483e+13 1.76105e+13 1.10271e+13 1.08743e+13 8.44953e+12 8.15962e+12 5.97848e+12 5.69913e+12 4.54103e+12 3.41287e+12 2.70152e+12 2.51405e+12 2.5048e+12 2.4719e+12 2.36947e+12 2.35492e+12 2.34775e+12 2.28544e+12 2.24923e+12 2.23124e+12 1.90889e+12 1.78502e+12 1.72302e+12 1.61406e+12 1.43281e+12 1.35128e+12 1.18982e+12 1.18522e+12 1.11732e+12 1.10818e+12 1.50447e+12 1.09672e+12 8.38212e+11 8.22011e+11 7.50874e+11 7.25506e+11 6.87377e+11 6.73971e+11 6.19391e+11 5.71301e+11 5.63885e+11 5.47735e+11 5.26261e+11 5.15142e+11 5.08709e+11 5.86971e+11 5.05293e+11 4.9665e+11 4.87715e+11 4.78537e+11 4.77181e+11 4.66874e+11 4.5649e+11 4.45694e+11 4.08772e+11 4.07115e+11 4.61831e+11 3.87249e+11 3.80527e+11 3.7629e+11 3.75108e+11 3.55128e+11 3.65649e+11 3.4664e+11 3.18921e+11 3.20642e+11 3.10437e+11 3.10334e+11 2.83874e+11 2.68941e+11 2.58698e+11 2.5694e+11 2.56933e+11 2.51664e+11 2.34213e+11 2.26366e+11 2.13498e+11 2.14114e+11 2.05755e+11 2.01657e+11 1.97576e+11 1.94588e+11 1.93809e+11 1.85297e+11 1.84235e+11 1.78368e+11 1.78309e+11 1.75973e+11 2.38483e+11 1.72531e+11 1.66156e+11 3.0125e+11 2.30771e+11 1.61906e+11 1.61881e+11 1.57391e+11 1.55459e+11 2.38435e+11 1.53461e+11 1.73415e+11 1.52875e+11 1.52265e+11 1.51656e+11 1.45216e+11 1.36157e+11 1.35636e+11 1.32188e+11 1.31385e+11 1.29635e+11 1.2894e+11 1.39447e+11 1.43201e+11 1.26415e+11 1.18411e+11 1.17809e+11 1.17196e+11 1.57167e+11 1.16741e+11 1.1576e+11 1.8146e+11
threshold=0 1.5562911069368093 -1.4083130838452662 1 1.626539865935092 5.6853362083637657 1.626539865935092 1.5752135918578813 -1.4242832841926667 0.57936545950232121 -1.4823594335754133 2 2.3942365276744852 0.34318555089666064 3 -0.41055837556163816 3.4638572674479531 -1.4022121386965287 -0.0093420783791159524 1.1587309190046426 0.57936545950232121 0.42636134860940317 1.0000000180025095e-35 1.095433986684101 0.68641280760146972 -0.028046153331166727 4 0.067074037076704549 0.11623569544889385 -0.071975933472513534 -1.4564682614082207 5 0.28968272975116061 1.0000000180025095e-35 0.28968272975116061 1.4291597481889564 1.7592001434136217 -0.62127600396585092 0.28968272975116061 1.0000000180025095e-35 4.1860964665023124 -0.34456814681273656 -0.62127600396585092 0.46124478718700629 -0.52733962220023745 0.04186476777681878 2.1971646186213016 -0.14175930496811309 0.28968272975116061 -0.41171922464604843 -0.28637859438958457 1.2895224990194392 0.77317888988555727 -1.5861051304181326 -0.46740727606111265 0.79659948975801453 0.23398966426301293 0.56865883878735091 0.096344059315626659 0.23383178360521484 6 0.31734962040133791 0.28968272975116061 -0.8690481892534816 -0.059468570575789061 7 0.61315185089308966 1.3777620769467196 -0.17773880594717575 8 0.28968272975116061 0.47083779830605083 -0.17513045020972248 9 0.65424099846431516 -0.82975347490643825 -0.34618014226799415 1.1587309190046426 -0.41171922464604843 -1.1561314826187981 -0.94355002387817632 1.7146134614133179 -0.15672043730761434 1.1587309190046426 1.3144248277237125 1.2441947651420333 0.04186476777681878 0.57936545950232121 10 1.7592001434136217 1.0000000180025095e-35 -0.15901492451234506 1.1587309190046426 0.11793523110932111 0.50920984278222914 11 12 0.63683218915341988 -0.020812845751952663 1.477797408816045 0.11623569544889385 0.52527579764530696 -0.13725578286650089 -0.060685039446297682 1.4637144491271628 1.0000000180025095e-35 13 -0.10232290173213636 0.57936545950232121 0.28968272975116061 -0.033785419167699733 14 -0.089774059191669545 0.61204187992939474 1.1116867964714394 1.1698238374699581 -0.57936545950232099 1.0000000180025095e-35 -1.1561314826187981 1.0000000180025095e-35 3.1736808487243509 2.9074626225433691 0.57936545950232121 0.038230609492793881 15 -0.20603832446343157 0.05203538461743358
decision_type=9 2 2 9 2 2 2 2 2 2 2 9 2 2 9 2 2 2 2 2 2 2 2 2 2 2 9 2 2 2 2 9 2 2 2 2 2 2 2 2 2 2 2 2 2 2 2 2 2 2 2 2 2 2 2 2 2 2 2 2 9 2 2 2 2 9 2 2 2 9 2 2 2 9 2 2 2 2 2 2 2 2 2 2 2 2 2 2 9 2 2 2 2 2 2 9 1 2 2 2 2 2 2 2 2 2 9 2 2 2 2 9 2 2 2 2 2 2 2 2 2 2 2 2 9 2 2
left_child=1 4 7 6 -1 11 14 70 18 15 22 12 29 55 47 79 26 -10 30 -11 45 75 50 115 28 43 46 32 -17 53 39 78 44 -20 36 40 -15 -38 97 67 58 74 -22 -16 -19 -9 49 59 76 -13 -6 -46 90 107 -34 -14 102 -47 62 -2 -43 112 63 -27 124 71 -23 125 88 73 86 -66 -73 91 -33 -18 -49 114 -31 -4 -78 96 -63 84 -35 -82 -3 -86 103 -36 -53 -70 101 -60 110 122 -45 98 -25 -100 -41 -24 -39 104 -51 106 -62 -5 -68 -32 -71 -112 -55 -92 -40 -12 -37 -118 -119 -80 -98 -67 123 -96 -28 -8 -127
right_child=3 2 9 5 10 -7 8 20 17 19 23 16 13 34 25 24 21 27 33 -21 42 66 92 38 -26 35 64 -29 -30 31 109 41 54 83 89 116 37 56 77 100 -42 60 -44 81 51 57 -48 48 -50 68 -52 52 -54 61 -56 -57 -58 -59 93 -61 105 82 -64 -65 65 121 108 -69 69 94 -72 72 -74 -75 -76 -77 80 -79 119 -81 85 -83 -84 -85 87 -87 -88 -89 -90 -91 113 -93 -94 -95 95 -97 120 -99 99 -101 -102 -103 -104 -105 -106 -107 -108 -109 -110 -111 111 -113 -114 -115 -116 -117 117 118 -120 -121 -122 -123 -124 -125 -126 126 -128
leaf_value=-181.74060198359132 12041.549145951705 14022.717279052735 73922.446022727279 2177.4863402463679 33290.568605324072 23885.246826923078 11292.778597530243 38890.449977355071 -517.51958791151401 46373.252935606062 12106.217375578704 -579.02348999697244 -311.69343555912832 8514.8145122111346 -559.27811157544454 84871.180390625013 2527.7663918925077 5901.7422312041863 18959.996051465852 65854.405018939389 36432.304166666669 3583.7211573534678 20505.996875000001 20776.114443897637 79230.214273648657 3467.6290498621329 -590.1516921351149 2539.9968121832771 104911.89050000001 -404.60583776840787 16443.774360795458 284.42429756083646 3975.1006671293285 10284.406897154851 4731.2289411272322 4620.9537658691406 9206.6162000868062 20316.333964843754 13447.344399207746 9627.7556029040406 -675.55051066080739 977.83417825908566 25770.069391025641 -505.61485248141821 7468.52783612657 51495.984375 2505.2186163817405 3983.0076600092107 3783.7261628934657 -39.748053601813908 40673.819382440473 9763.9366439494679 5112.4915083451706 -519.63540032641458 7171.837998482034 2762.9431408031569 14352.109151785713 42171.05473345588 1558.2599658773936 6547.810125177557 3512.3900255927324 2.7980718789799757 2280.3112455669202 9868.050576636906 -448.38083275941756 -597.9246718651342 7800.7611412311426 9297.9646780303028 58.227396239643753 -360.54547624076901 11409.604854166668 -287.44113810845141 601.84980025847631 -677.06516947327168 2449.4655393105963 507.09140658258576 4470.3819368998211 18663.948642418032 703.82724022305263 66903.198925781253 7845.6053725393203 2281.4017910418734 826.28668081196508 15922.190570175439 16930.675045955883 4384.4225161132808 18390.832986111112 11312.847979525863 -410.76736332139626 8127.7368629092271 13736.426121400984 778.03491895140928 28283.747604166667 2834.6089987385858 1202.4760250988356 -266.68384952971206 862.18262382963167 18409.436167279415 21701.616614583334 27639.348806423615 7122.4708836570953 25875.825390625003 26381.118987771741 -274.71434422376689 1135.2825960459181 1908.2937426422031 2022.3319271667926 552.38238136135806 4644.8313232421879 13592.905979938274 618.10280267690689 -129.41555101334498 -9.819881389707465 10145.761805555558 18035.309003906248 15461.839955357143 10418.979463564117 10236.902695312499 5488.2659192370129 165.91490642136901 2993.1479637704247 298.61934555503706 -0.30733448416846143 101.54001112538715 -700.82535922048555 13064.315239701704 17947.754449728262
leaf_weight=595 55 64 22 285 54 195 62 69 187 33 162 8996 198 119 960 20 193 324 194 33 27 202 25 127 37 51 36892 370 25 1155 110 1332 486 67 84 64 54 20 71 99 192 945 39 198 348 23 191 110 404 1706 42 94 44 5325 162 370 21 34 385 121 480 3042 76 63 5549 20756 116 99 1321 7109 75 2136 1929 593 189 1748 96 61 2177 32 304 386 1150 57 34 50 45 29 13402 84 89 2718 30 946 872 1736 318 34 30 36 185 32 23 3433 578 1052 557 294 57 81 760 2907 1728 36 20 35 29 20 77 2192 82 373 700 516 73305 110 23
leaf_count=595 55 64 22 285 54 195 62 69 187 33 162 8996 198 119 960 20 193 324 194 33 27 202 25 127 37 51 36892 370 25 1155 110 1332 486 67 84 64 54 20 71 99 192 945 39 198 348 23 191 110 404 1706 42 94 44 5325 162 370 21 34 385 121 480 3042 76 63 5549 20756 116 99 1321 7109 75 2136 1929 593 189 1748 96 61 2177 32 304 386 1150 57 34 50 45 29 13402 84 89 2718 30 946 872 1736 318 34 30 36 185 32 23 3433 578 1052 557 294 57 81 760 2907 1728 36 20 35 29 20 77 2192 82 373 700 516 73305 110 23
internal_value=1.83555 20621.8 42549.4 -178.419 11413.5 -365.687 4654.89 26253 7905.25 72883.4 20503.4 -387.836 520.092 5000.65 2519.91 81021.6 -496.697 5223.61 12895.4 56113.8 37970.7 1410.97 31121.2 17130 88435.8 1584.66 -520.164 5773.32 96004.9 321.289 11249.9 801.616 6529.06 16216.7 9642.12 2810.74 11919.4 15352.9 19431.5 9933.09 2407.24 1456.93 30131.9 392.6 7745.2 42076.7 -223.785 5612.84 5186.93 -234.842 36520.7 8722.74 10382.3 -88.1514 4774.28 1691.15 20538.9 45933.7 2796.39 8264.6 1914.66 -162.32 5114.95 7004.7 -620.071 -463.202 5049.48 11804.5 -154.107 -2.40371 14025.9 -201.691 134.562 384.176 553.453 708.014 6199.24 16144.5 258.149 69762.9 6740.98 1321.26 228.707 13370.8 12252.1 7356.74 15826.1 14344.7 -306.707 6429.48 11441.1 541.274 25163.1 2465.42 -125.228 166.085 701.506 21632.4 22200.2 24940.4 7995.79 23520.6 23560.3 -61.9366 257.611 2322.66 2765.41 1352.3 6760.95 15234.8 -228.72 26.8432 -394.73 12702.3 14455.7 12702.4 6448.56 7376.86 6467.37 433.948 1299.03 -581.822 524.661 793.194 -663.891 13077.1 13908.8
internal_weight=224074 1932 578 222142 1354 213865 8277 376 3290 202 759 213670 22876 973 4987 136 190794 2140 1150 66 192 2316 183 576 82 3847 188478 1953 45 21903 769 10079 1583 381 405 1903 237 118 379 578 1713 4555 66 1944 935 126 47538 1140 964 47347 96 611 263 11824 648 568 64 57 1521 176 3034 11245 190 114 140940 30743 375 294 38351 19232 184 9614 4065 4632 1521 1941 560 152 5524 54 450 984 4192 187 130 354 109 63 19119 168 219 4039 87 1331 14600 3824 598 227 193 66 284 57 43 5717 2284 2089 1037 579 173 191 10776 3667 7053 125 91 197 190 126 97 4369 400 21129 2088 1388 110197 195 133
internal_count=224074 1932 578 222142 1354 213865 8277 376 3290 202 759 213670 22876 973 4987 136 190794 2140 1150 66 192 2316 183 576 82 3847 188478 1953 45 21903 769 10079 1583 381 405 1903 237 118 379 578 1713 4555 66 1944 935 126 47538 1140 964 47347 96 611 263 11824 648 568 64 57 1521 176 3034 11245 190 114 140940 30743 375 294 38351 19232 184 9614 4065 4632 1521 1941 560 152 5524 54 450 984 4192 187 130 354 109 63 19119 168 219 4039 87 1331 14600 3824 598 227 193 66 284 57 43 5717 2284 2089 1037 579 173 191 10776 3667 7053 125 91 197 190 126 97 4369 400 21129 2088 1388 110197 195 133
cat_boundaries=0 5 10 16 20 27 33 37 43 49 50 55 62 63 68 75 81
cat_threshold=0 65536 0 2048 1073741824 805372936 16 66 805310466 2348810240 67639889 3758096384 675282944 3222291744 805306369 2147483652 1032 16 0 536875008 1073742114 268435457 17825800 83960529 2097264 1409613866 6 528896 1073741824 671088640 16640 536870912 4 2048 0 0 1073742848 2147483652 16642 2147582720 134250496 42336384 8390656 256 268435457 0 0 16 1342177280 280 0 0 0 8192 32 2 0 0 65537 32 0 4 2 17 0 0 1048576 1 32 0 0 0 2097152 0 2 2147500160 2621442 721200 136347648 132 54560961
is_linear=0
shrinkage=0.05


Tree=4
num_leaves=128
num_cat=15
split_feature=16 1 2 16 4 11 11 1 2 0 2 16 3 4 16 13 4 15 2 7 13 5 0 0 1 10 16 2 2 11 16 0 0 0 6 1 13 0 0 5 3 0 3 13 4 15 13 4 6 0 6 0 5 13 2 1 13 7 13 13 16 0 0 13 1 9 16 3 0 10 16 2 4 11 5 1 11 0 3 13 1 0 1 2 9 3 13 0 13 16 1 3 15 0 9 19 1 0 13 13 1 0 16 16 0 0 2 13 9 15 7 0 15 2 1 17 2 16 0 0 13 13 15 0 0 15 13
split_gain=3.00685e+14 1.41765e+14 1.03147e+14 7.25937e+13 5.15186e+13 4.14377e+13 2.07537e+13 1.94474e+13 1.58935e+13 9.95194e+12 9.81404e+12 7.63195e+12 7.41799e+12 5.39558e+12 5.14347e+12 4.12555e+12 3.10579e+12 2.95246e+12 2.43812e+12 2.26893e+12 2.26555e+12 2.24392e+12 2.23089e+12 2.12532e+12 2.11884e+12 2.02993e+12 1.94009e+12 1.72278e+12 1.45669e+12 1.38994e+12 1.47499e+12 1.21953e+12 1.07381e+12 1.06966e+12 1.00838e+12 1.00014e+12 1.31802e+12 9.89791e+11 7.56486e+11 7.41865e+11 6.78789e+11 6.59053e+11 6.20358e+11 5.91309e+11 5.83472e+11 5.7227e+11 5.53949e+11 5.46056e+11 5.22269e+11 5.25091e+11 5.08906e+11 4.96364e+11 4.84978e+11 4.64915e+11 4.48226e+11 4.40163e+11 4.25397e+11 4.21354e+11 4.19893e+11 4.16875e+11 4.02749e+11 3.67421e+11 4.16802e+11 3.39601e+11 3.38535e+11 3.28239e+11 3.62999e+11 3.21778e+11 3.12843e+11 3.08631e+11 2.97051e+11 2.8705e+11 2.80076e+11 2.69932e+11 3.14366e+11 2.64132e+11 2.41577e+11 2.38117e+11 2.17522e+11 2.13232e+11 2.11377e+11 1.92682e+11 1.93238e+11 1.80119e+11 1.84487e+11 2.34481e+11 1.7935e+11 1.78312e+11 1.78108e+11 1.76454e+11 1.74913e+11 1.6784e+11 1.67383e+11 1.60978e+11 1.60924e+11 1.55709e+11 1.50888e+11 1.43675e+11 1.4161e+11 2.55476e+11 1.9635e+11 1.39408e+11 1.56933e+11 1.38893e+11 1.3742e+11 1.36869e+11 1.36611e+11 1.35949e+11 1.3532e+11 1.31998e+11 1.24933e+11 1.22778e+11 1.70218e+11 1.22422e+11 1.20164e+11 1.19401e+11 1.18507e+11 1.24033e+11 1.16768e+11 1.16637e+11 1.1311e+11 1.25845e+11 1.11371e+11 1.10243e+11 1.09549e+11 1.09284e+11 1.08787e+11
threshold=0 1.5562911069368093 -1.4083130838452662 1 0.27687679137037841 5.6853362083637657 1.626539865935092 1.5752135918578813 -1.4242832841926667 0.57936545950232121 -1.4823594335754133 2 2.3942365276744852 2.9525090691525886 3 -0.20509572282789718 3.2054295332215537 -1.1556403047088457 -1.4022121386965287 -0.0093420783791159524 -0.89329070205018402 0.42636134860940317 0.57936545950232121 1.0000000180025095e-35 1.095433986684101 -0.028046153331166727 4 0.067074037076704549 -1.4564682614082207 -0.071975933472513534 5 0.28968272975116061 1.0000000180025095e-35 0.28968272975116061 1.4291597481889564 1.7592001434136217 -0.7524003913432592 0.28968272975116061 1.0000000180025095e-35 4.1860964665023124 -0.34456814681273656 1.1587309190046426 0.46124478718700629 -0.62776665494867157 -0.37095457273609356 -0.95072782312640836 -0.20509572282789718 0.91139655210479964 1.2895224990194392 1.0000000180025095e-35 -0.14175930496811309 0.57936545950232121 -0.40213118036340539 -0.28637859438958457 -0.46740727606111265 0.79659948975801453 0.35304666189568995 0.096344059315626659 0.56980098606018981 1.0249850668056395 6 0.28968272975116061 -0.8690481892534816 0.61315185089308966 1.3777620769467196 -0.059468570575789061 7 0.56676790949649647 0.28968272975116061 0.032417957861696663 8 -1.576217020201349 1.4039258768706793 -0.17773880594717575 -0.31974505993573671 -0.82975347490643825 -0.17513045020972248 1.448413648755803 -0.248638035622291 1.0574982154303145 1.7146134614133179 1.1587309190046426 1.3144248277237125 -1.4959754502318667 -0.060685039446297682 0.77781415411547672 -0.20509572282789718 0.57936545950232121 -1.3159616341709583 9 1.7592001434136217 1.5644410658771306 -0.91148926282338849 1.1587309190046426 0.11793523110932111 10 0.44224596054948201 0.57936545950232121 0.9111890466192768 0.017077459440715183 1.477797408816045 1.0000000180025095e-35 11 12 0.57936545950232121 0.28968272975116061 -1.5684649141801286 -0.454363195617072 0.096499869938650437 0.53161778832101025 -0.072777818606085051 -0.57936545950232099 -0.87225070252036851 0.89617147291274601 1.2514152605566549 13 0.57737405883338533 14 -1.1587309190046422 -0.8690481892534816 1.4368182827181892 0.11461690531474016 4.6298674199697567 1.1587309190046426 -0.28968272975116049 4.6298674199697567 -0.79575125617615905
decision_type=9 2 2 9 2 2 2 2 2 2 2 9 2 2 9 2 2 2 2 2 2 2 2 2 2 2 9 2 2 2 9 2 2 2 2 2 2 2 2 2 2 2 2 2 2 2 2 2 2 2 2 2 2 2 2 2 2 2 2 2 9 2 2 2 2 2 9 2 2 2 9 2 2 2 2 2 2 2 2 2 2 2 2 2 2 2 2 2 2 9 2 2 2 2 2 1 2 2 2 2 2 2 9 9 2 2 2 2 2 2 2 2 2 2 2 9 2 9 2 2 2 2 2 2 2 2 2
left_child=1 4 7 6 -1 11 14 68 19 15 23 12 29 33 50 92 26 -17 -10 28 -11 75 46 53 120 42 44 31 38 47 40 43 122 35 39 -14 118 98 64 57 72 -24 -16 -20 -13 -19 -9 71 -45 111 58 59 -46 126 -33 -15 -38 61 109 88 -42 62 -27 -23 -8 -28 67 -67 86 70 73 -5 -31 83 110 -18 -69 -39 -32 -48 95 82 -34 115 85 -85 -3 -84 -52 -80 -35 106 -4 97 -59 -44 -61 -25 99 -26 -101 102 -62 -71 -65 -30 -76 -40 -73 -2 -75 112 -50 -90 -114 -54 117 -49 -37 -36 121 -12 -21 -107 -7 -97 -6
right_child=3 2 9 5 10 124 8 22 18 20 24 16 13 55 25 17 21 45 27 32 -22 63 41 93 37 34 65 -29 105 30 78 54 81 90 119 36 56 77 107 -41 60 -43 80 48 52 -47 79 116 49 -51 51 -53 69 -55 -56 -57 -58 94 -60 96 101 -63 -64 104 -66 66 -68 76 -70 103 -72 108 -74 74 91 -77 -78 -79 89 -81 -82 -83 87 84 -86 -87 -88 -89 113 -91 -92 -93 -94 -95 -96 125 -98 -99 -100 100 -102 -103 -104 -105 -106 123 -108 -109 -110 -111 -112 -113 114 -115 -116 -117 -118 -119 -120 -121 -122 -123 -124 -125 -126 -127 -128
leaf_value=-172.65356792161447 8670.1474409054481 12911.30646033654 63517.912000000004 1610.3519074128806 34135.138281250001 24082.185975609755 12423.200214342949 36206.112897727275 -491.64358954608127 63151.383064516136 13168.616975635594 -534.75973836059472 8089.0738428965342 -296.10876699505428 -531.31420772482954 73364.983125000013 2401.3780891695174 86423.684999999998 5585.4059607752606 17583.543802234737 44589.830446428576 3404.5350747892176 23923.057276785716 24899.329352678571 19763.942751736115 3294.2475605085783 -635.7491549563465 2412.996966313543 15621.585280539774 270.20307235488661 -113.38792969734823 3776.3455982851883 9770.1865234375 4494.6672502790179 3965.2487346243356 6904.5865295410158 22187.540767045459 14315.358225911457 9163.7436890961017 -641.77298380533864 929.45442238712803 33934.282409274194 -480.33411114239937 7042.2059264804111 2379.957688886836 97770.968000000008 45444.255180921056 727.66877330104035 7908.5270526960785 5610.6256655092593 3854.7147775750414 3332.9901011502307 -251.11558948687409 38640.126562500001 6813.2460208845732 2624.7959664648934 13392.949902343751 1480.3470215794948 5746.8538944055545 2596.4974686321034 3340.3546212791912 2166.2956623278164 9374.6480561755943 7410.7234257139007 8833.0663332544191 -395.4372146427047 -566.82535529334461 -213.47384501782869 10839.124427083334 1001.1638469535878 -376.51076548302962 -413.38542587111965 2326.9923182391617 1415.4057607304721 589.48775298549162 470.02885205740125 670.44128223410837 19169.594824218751 986.18979508252926 39950.406392045457 2167.331636766819 15126.081099232455 16084.140877757352 -17.723697190758781 -253.4480164933336 1039.2461967498498 16971.954721765353 10747.205792025863 6429.4818222489475 230.4378749967004 7721.3497686476949 735.46452931698332 69016.716431451612 26869.560468750002 2692.8785411850849 904.09721040228146 6003.3652951388895 19877.97640086207 17625.80845982143 20616.535442708337 26093.570464409724 1812.8790503440248 1922.9987096009431 97.399840229508797 4412.5897798471287 11304.252105978261 -107.88654746328172 6832.6520318635485 382.1889953480827 12868.714605034722 378.47127718420978 12443.637204010955 10101.473659446023 8635.028329824474 15013.073359374999 -695.0636856729202 -231.68842569364421 -17.89108791478137 11636.555095880683 6836.3495166698531 14149.465577168368 10190.795918188203 21361.714559659093 15027.957500000002 21681.439663993366 3303.9646832830258 29618.762239583331
leaf_weight=595 39 52 25 190 24 82 195 55 187 31 59 11913 119 198 960 35 193 20 313 172 35 202 35 28 126 51 107895 370 110 1332 2878 486 67 84 47 32 44 120 93 192 945 31 198 367 191 25 38 2322 51 54 57 324 4575 42 162 370 20 385 101 117 480 76 63 116 99 6318 20376 1551 75 770 12284 7417 189 576 773 2139 1541 32 1125 33 386 57 34 1710 3640 757 57 29 344 2484 84 752 31 30 946 345 45 29 35 30 36 1052 557 955 57 46 7673 191 576 36 586 97 33 77 20 2288 577 742 22 143 49 89 22 35 113 55 30
leaf_count=595 39 52 25 190 24 82 195 55 187 31 59 11913 119 198 960 35 193 20 313 172 35 202 35 28 126 51 107895 370 110 1332 2878 486 67 84 47 32 44 120 93 192 945 31 198 367 191 25 38 2322 51 54 57 324 4575 42 162 370 20 385 101 117 480 76 63 116 99 6318 20376 1551 75 770 12284 7417 189 576 773 2139 1541 32 1125 33 386 57 34 1710 3640 757 57 29 344 2484 84 752 31 30 946 345 45 29 35 30 36 1052 557 955 57 46 7673 191 576 36 586 97 33 77 20 2288 577 742 22 143 49 89 22 35 113 55 30
internal_value=1.75349 19590.7 40422 -169.489 10842.9 -347.392 4422.15 24940.4 7509.99 69239.2 19478.2 -368.434 474.715 4750.62 2393.92 76970.5 -474.317 84256.5 4962.43 12250.7 53308.1 1207.14 36072.1 29565.1 16273.5 1505.43 -498.667 5484.66 10687.4 292.973 696.369 6202.6 15405.9 9160.02 2670.2 11323.5 14585.3 18459.9 9436.44 2286.88 1384.8 28625.3 372.97 7357.94 -229.849 92727.7 39972.9 -83.7438 8249.91 9988.05 5332.2 4927.58 -133.124 34694.7 4535.57 1606.59 19439.2 2656.57 7851.37 5734.84 1820 4859.2 6654.47 4797.01 11214.3 -595.143 -448.252 -190.692 13324.6 -145.979 -177.616 -310.396 525.78 -72.6985 117.566 629.87 227.054 15337.3 210.514 42890.8 1255.2 12702.2 11639.5 -224.732 -27.2063 306.608 15034.8 13627.5 6477.74 469.392 6108.01 19.6706 66561.9 23904.9 2342.15 666.431 3542.85 22344.6 20550.8 21084 23604 2207.84 2629.81 507.188 6422.9 14473 -44.061 7596 -356.054 10685.5 892.477 11164.1 9970.62 6832.87 11954.9 -400.499 425.648 549.435 8832.43 6126.13 12067.3 11377.9 18012 12913.3 22691 1234.08 31626
internal_weight=224074 1932 578 222142 1354 213865 8277 376 3290 202 759 213670 23839 973 4987 136 189831 80 2140 1150 66 2707 192 183 576 3847 187124 1953 769 22866 11042 1583 381 405 1903 237 118 379 578 1713 4555 66 1944 935 49443 45 126 11824 622 255 1140 964 37530 96 648 568 64 1521 176 640 3034 190 114 375 294 137681 29786 9410 184 37339 35614 8183 1521 23330 10360 2332 3092 152 6487 71 984 187 130 12970 6107 2467 109 63 478 3609 168 9198 56 87 1331 598 162 57 227 192 66 2089 1037 1725 173 191 8446 284 7993 75 1162 201 104 421 53 6863 3641 3064 54 190 197 148 194 81 195 400 54
internal_count=224074 1932 578 222142 1354 213865 8277 376 3290 202 759 213670 23839 973 4987 136 189831 80 2140 1150 66 2707 192 183 576 3847 187124 1953 769 22866 11042 1583 381 405 1903 237 118 379 578 1713 4555 66 1944 935 49443 45 126 11824 622 255 1140 964 37530 96 648 568 64 1521 176 640 3034 190 114 375 294 137681 29786 9410 184 37339 35614 8183 1521 23330 10360 2332 3092 152 6487 71 984 187 130 12970 6107 2467 109 63 478 3609 168 9198 56 87 1331 598 162 57 227 192 66 2089 1037 1725 173 191 8446 284 7993 75 1162 201 104 421 53 6863 3641 3064 54 190 197 148 194 81 195 400 54
cat_boundaries=0 5 10 16 20 27 32 36 42 49 55 56 61 67 68 74
cat_threshold=0 65536 0 2048 1073741824 805372936 16 66 805310466 2348810240 67639889 3758096384 675282944 3222291760 805306369 2147483684 1032 16 0 536875008 1073742114 268435457 17825800 83993281 2097264 1409617930 6 67110993 2147483648 4194304 3222275104 1 2048 0 0 1073742848 2147483652 278786 2147582720 134217728 42336384 8390656 288 1 16777216 67108929 48 67108864 4 4096 0 134217728 16384 536870912 4 2 17 0 0 1048576 1 0 268435456 0 0 2097152 1342177280 16 0 536870912 0 2147483648 268435456 2147483648
is_linear=0
shrinkage=0.05


Tree=5
num_leaves=128
num_cat=16
split_feature=16 1 4 16 4 11 1 11 0 6 16 3 1 3 4 13 16 11 12 0 0 11 10 1 12 8 6 4 16 1 5 0 0 0 16 16 1 12 12 0 0 3 12 1 3 15 13 1 16 1 12 6 13 9 3 16 0 0 5 1 0 14 12 13 12 0 15 0 16 12 1 16 4 12 15 12 1 1 16 12 13 13 6 4 5 4 3 15 3 10 0 1 15 1 14 0 1 0 13 12 13 14 4 16 15 0 17 4 0 1 12 15 16 14 13 0 0 0 6 0 4 8 12 15 17 5 11
split_gain=2.6716e+14 1.19727e+14 8.66046e+13 6.39992e+13 4.55295e+13 3.69552e+13 1.9626e+13 1.71349e+13 9.82584e+12 8.26262e+12 7.07135e+12 6.86852e+12 7.32645e+12 5.8638e+12 6.94641e+12 4.98443e+12 4.63985e+12 2.54424e+12 2.4458e+12 2.28498e+12 2.12992e+12 2.12592e+12 1.97592e+12 1.86111e+12 1.73784e+12 1.73756e+12 1.73208e+12 1.65667e+12 1.50045e+12 1.26479e+12 1.23481e+12 1.22419e+12 1.18007e+12 9.88468e+11 8.94658e+11 8.89315e+11 8.89205e+11 1.0436e+12 8.2621e+11 7.51365e+11 6.77504e+11 6.50374e+11 6.21132e+11 5.83097e+11 5.77799e+11 5.54498e+11 4.94468e+11 4.64081e+11 4.63844e+11 4.57306e+11 4.44587e+11 4.44302e+11 4.54082e+11 4.30539e+11 4.46292e+11 4.27787e+11 4.26806e+11 3.91612e+11 3.85743e+11 3.82193e+11 3.68117e+11 3.65359e+11 3.32821e+11 5.86705e+11 3.32803e+11 4.68009e+11 3.23832e+11 3.20439e+11 3.17357e+11 3.0599e+11 2.74329e+11 2.69367e+11 2.66414e+11 2.51056e+11 2.43116e+11 2.37022e+11 2.79249e+11 2.35663e+11 2.29312e+11 2.28148e+11 2.25396e+11 3.37209e+11 2.2394e+11 2.19166e+11 2.16409e+11 2.1105e+11 2.083e+11 1.98417e+11 1.91449e+11 1.86057e+11 1.80428e+11 1.78371e+11 1.75957e+11 1.70895e+11 1.90128e+11 1.70649e+11 1.68733e+11 1.63344e+11 2.3529e+11 1.61369e+11 1.60741e+11 1.60128e+11 1.59655e+11 1.77857e+11 1.59569e+11 1.57061e+11 1.52347e+11 1.49861e+11 1.44553e+11 1.4367e+11 1.43203e+11 1.38561e+11 1.34915e+11 1.32454e+11 1.30358e+11 1.44537e+11 1.28265e+11 1.25115e+11 1.25068e+11 1.22972e+11 1.21552e+11 1.33461e+11 1.16173e+11 1.1343e+11 1.1218e+11 1.29905e+11 1.37162e+11
threshold=0 1.5562911069368093 0.53423445656336044 1 0.27687679137037841 5.6853362083637657 1.5752135918578813 1.626539865935092 0.57936545950232121 1.2546131867270598 2 -0.29660309121751377 1.0205655597598009 2.3942365276744852 2.6995886050836231 -0.20509572282789718 3 -0.099098503920886802 0.68641280760146972 0.57936545950232121 0.28968272975116061 -0.17435119040434224 -0.028046153331166727 1.095433986684101 -0.77001785931000122 -0.0078347855255526296 1.045157312972784 -0.095848103047043845 4 1.4657100946676824 2.0295715809167234 1.0000000180025095e-35 1.0000000180025095e-35 0.28968272975116061 5 6 1.7592001434136217 -0.68325177702591355 0.04186476777681878 1.0000000180025095e-35 0.28968272975116061 1.0751974988058581 0.17201389120295033 1.7146134614133179 -0.34456814681273656 -1.3474732661902762 -0.62776665494867157 -1.1968450671350108 7 1.1649891182997703 -0.71423966355594481 -0.14175930496811309 1.0574982154303145 0.031199612435690995 -0.41171922464604843 8 1.1587309190046426 0.57936545950232121 4.1860964665023124 1.2448777727784355 0.57936545950232121 1.0097071477117996 -0.32379229327755038 0.84616274936992719 -0.25561894291148168 0.28968272975116061 -0.91148926282338849 1.1587309190046426 9 -1.0984894565283325 1.3777620769467196 10 1.4039258768706793 -0.032506159895256508 0.76704915013912978 -0.4353486847856633 1.477797408816045 1.1071520816144915 11 0.55626368417533822 -0.020854547288072438 0.42891067535326477 1.1149759375575425 0.61410407679566525 -0.3845064169364994 1.8742691960164739 -0.43090524688413756 -0.89840974272238194 0.84496523194878859 -0.04097510062200891 1.0000000180025095e-35 1.1363503988957502 0.36158402700792397 1.3144248277237125 0.45660319641769548 1.0000000180025095e-35 -0.66839313855205307 1.448413648755803 1.1767130937207895 0.04186476777681878 -0.77407582375970907 -0.393430244518507 2.4022961297744891 12 0.76704915013912978 0.28968272975116061 13 2.0650688443492022 1.0000000180025095e-35 1.7592001434136217 -0.71423966355594481 -1.0030459035304349 14 -0.78351408385224375 -0.67653637788568421 0.28968272975116061 0.57936545950232121 0.28968272975116061 2.232073930913681 1.1587309190046426 -0.30883375699985655 -0.064559870671481653 -0.4353486847856633 -0.87225070252036851 15 -0.33947964905754241 -0.19665317311221056
decision_type=9 2 2 9 2 2 2 2 2 2 9 2 2 2 2 2 9 2 2 2 2 2 2 2 2 2 2 2 9 2 2 2 2 2 9 9 2 2 2 2 2 2 2 2 2 2 2 2 9 2 2 2 2 2 2 9 2 2 2 2 2 2 2 2 2 2 2 2 9 2 2 9 2 2 2 2 2 2 9 2 2 2 2 2 2 2 2 2 2 2 2 2 2 2 2 2 2 2 2 2 2 2 2 9 2 2 9 2 2 2 2 2 9 2 2 2 2 2 2 2 2 2 2 2 9 2 2
left_child=1 4 8 7 -1 10 60 16 15 23 13 26 47 17 33 66 51 48 42 38 62 -16 43 -6 -10 30 29 78 44 77 40 46 75 36 53 41 -15 -38 111 -27 70 64 -17 91 72 -23 -28 -13 83 -33 -21 52 74 54 -29 95 -22 61 -37 -48 122 69 -11 -64 -24 -66 -3 93 -55 -53 80 -56 -19 -42 -2 -25 -77 -9 -12 -40 92 -82 -47 84 -5 89 -30 -39 108 -73 112 -18 100 94 -41 -46 -87 98 -34 123 -14 -102 103 -36 -57 -32 -91 120 -71 -35 -62 -8 -88 -43 -49 -116 -95 -115 -93 -107 -50 124 -4 -61 125 -122 -127
right_child=3 2 6 5 9 -7 19 11 24 20 27 12 25 14 21 18 22 28 -20 50 56 45 35 32 -26 39 31 34 86 -31 105 49 97 109 102 58 37 87 79 67 73 113 -44 -45 55 82 59 114 107 -51 -52 57 -54 68 71 104 -58 -59 -60 99 110 -63 63 -65 65 -67 -68 -69 -70 88 -72 85 -74 -75 -76 76 -78 -79 -80 -81 81 -83 -84 -85 -86 96 90 -89 -90 106 -92 118 -94 116 -96 -97 -98 -99 -100 -101 101 -103 -104 -105 -106 119 -108 -109 -110 -111 -112 -113 -114 117 115 -117 -118 -119 -120 -121 121 -123 -124 -125 -126 126 -128
leaf_value=-135.6323177873272 7197.0043522690285 57354.044110576928 12317.626977539063 1486.0312856207504 11324.896373355265 21711.805226151318 31627.235528273814 2005.2445922326788 59190.467349137936 28169.166776315793 -435.83570033846928 2497.6614906800355 5840.1504356971163 7756.5415131191039 259.83348937931834 83412.557031250006 1347.8615010444155 262.97436772386533 71273.887841796881 32347.346625000002 18318.289477040817 7044.8239593197613 4049.2013444156396 17970.829047439762 43197.337347560977 16525.270195737092 5656.3786828873008 2299.6177494549993 -450.8564777266231 5658.6724682985241 14774.773699297224 7237.5006716464432 12860.98872857863 4264.0256458333342 -578.25885137901753 1978.142568172384 8469.6906042220744 14639.053141276041 46346.122433035722 11465.506183035715 9194.5921752929698 1593.3678749320434 95724.576190476189 2059.6608368808406 3101.4010312678897 4770.3445094724902 6768.8672900390629 3920.0561461103725 -572.9382004802934 3355.3004472882999 23667.896527777779 3284.2054404793716 4165.4154199218747 1664.7274842245654 -610.43178995595383 981.69327763673016 25674.210085227274 3273.2517463523113 -609.66237491221909 6791.2803299753286 12373.681519396552 3161.1825129619547 36813.325888480394 26708.961875000005 9185.4504022155143 3749.8228229869501 65324.048375000006 14729.529644097223 344.58814544516304 7073.4899489597728 8451.4602274232002 1494.0924812461235 2265.0037483902984 5764.1071887207036 11720.751866319444 19390.186831974639 24297.337687499999 -472.36633100460745 -611.01661911313977 40364.002449324325 15829.410673466436 9145.0084792564649 2567.8351526782499 378.45090548865431 -256.39830768004958 1083.0122074308547 1019.9618009550846 20363.296136623478 5484.4034667968754 -16.597767115661366 83.487410055506473 -493.71893480660185 13776.829673032407 15073.817881944444 6215.6949649586404 1890.5860076672207 29.009418929571282 17783.789015151513 17313.674419070514 11809.300498453777 13589.329056490385 8813.3172164351854 170.78783869255767 -316.56803399982948 1857.7021311349931 10188.744548233697 -504.9246448328164 1049.4764099531276 10542.633843315973 7274.8255487351189 7759.0071289062507 36563.638210227269 370.09184953770404 3969.2759094238281 7010.4177275508282 4685.9710266113279 10243.846847098215 2114.6207784935737 881.58546483331395 14154.262798713236 -478.52373041394077 -511.10028301642228 15451.712738433444 10605.976650390627 -530.44496078242207 -614.29123678768383 204.97249283761892
leaf_weight=584 66 26 48 188 190 190 21 189 29 38 23033 191 26 106 1322 20 188 1325 32 25 49 99 223 83 41 184 188 198 971 199 112 94 124 75 11514 754 47 24 28 35 80 194 21 395 580 147 120 94 5378 393 36 82 70 564 2116 1539 33 314 178 38 29 138 51 20 99 66 25 72 2294 181 118 185 190 160 54 69 50 195 105097 37 54 29 537 3805 3418 752 1152 41 193 8825 3836 1152 27 27 34 584 767 33 39 96 26 54 1154 15148 785 46 1941 186 36 84 40 44 2706 220 166 112 28 155 193 34 1325 4080 77 40 1522 595 3614
leaf_count=584 66 26 48 188 190 190 21 189 29 38 23033 191 26 106 1322 20 188 1325 32 25 49 99 223 83 41 184 188 198 971 199 112 94 124 75 11514 754 47 24 28 35 80 194 21 395 580 147 120 94 5378 393 36 82 70 564 2116 1539 33 314 178 38 29 138 51 20 99 66 25 72 2294 181 118 185 190 160 54 69 50 195 105097 37 54 29 537 3805 3418 752 1152 41 193 8825 3836 1152 27 27 34 584 767 33 39 96 26 54 1154 15148 785 46 1941 186 36 84 40 44 2706 220 166 112 28 155 193 34 1325 4080 77 40 1522 595 3614
internal_value=-1.50247 18415.4 37558.3 -163.248 10418.7 -329.524 23831.4 4165.73 64799.8 18331.1 -349.123 6985.02 9171.78 247.881 2602.13 73254.3 2317.2 93.277 81633.3 35208.7 27366.1 1482.71 1468.85 15396.2 49823.1 11466.4 4577.05 -487.575 638.255 2423.59 10095.1 5872.67 17339.8 8852.49 -228.275 2621.99 11039 14145.6 38954.9 14230.6 8934.06 3691.77 89718.7 346.652 1326.72 3547.39 7659.05 4501.06 -215.659 4104.64 27225 5114.67 7365.8 50.3265 -58.2468 1683.5 21278.6 4715.76 1468.15 8939.68 12630 5434.72 31945.8 33967 5308.81 7011.2 61260.9 12076.4 612.136 6072.42 10390.2 -90.254 514.054 6907.6 9232.69 20021.6 21452 747.083 -579.607 42940.9 11449.3 13493.9 3041.18 113.598 -165.556 -1.49573 238.944 18249.7 6630.06 -78.1063 326.309 -94.7295 10173.4 10535.9 8878.64 2472.67 550.807 14575.8 13926.4 10436.8 9255.52 10365.5 -404.848 -429.915 1272.12 13566.2 -105.123 -361.626 7649.02 5854.64 9698.51 34968.8 567.746 2653.99 5529.69 6073.95 12614.9 3202.69 -296.37 11874.1 -377.738 -283.469 14248.2 8747.53 -151.845 -46.6769 89.1583
internal_weight=224193 1942 579 222251 1363 214039 385 8212 194 779 213849 3261 1709 40261 2482 124 4951 37779 73 191 191 2105 3817 588 70 1146 1552 173588 13668 583 766 969 398 377 45458 1889 218 112 130 380 574 957 41 1928 5003 783 482 563 24111 487 61 1134 190 17642 14784 3488 82 944 932 294 194 630 109 71 388 165 51 196 2858 492 334 14586 1515 240 120 202 119 384 128130 65 216 83 684 7411 3606 12470 8665 65 410 10951 7694 1533 133 124 69 1164 1519 196 163 174 106 80 27816 26662 2324 192 10766 16700 217 159 69 65 3858 569 372 278 55 375 1345 80 16514 11136 125 78 7056 5534 4209
internal_count=224193 1942 579 222251 1363 214039 385 8212 194 779 213849 3261 1709 40261 2482 124 4951 37779 73 191 191 2105 3817 588 70 1146 1552 173588 13668 583 766 969 398 377 45458 1889 218 112 130 380 574 957 41 1928 5003 783 482 563 24111 487 61 1134 190 17642 14784 3488 82 944 932 294 194 630 109 71 388 165 51 196 2858 492 334 14586 1515 240 120 202 119 384 128130 65 216 83 684 7411 3606 12470 8665 65 410 10951 7694 1533 133 124 69 1164 1519 196 163 174 106 80 27816 26662 2324 192 10766 16700 217 159 69 65 3858 569 372 278 55 375 1345 80 16514 11136 125 78 7056 5534 4209
cat_boundaries=0 5 10 16 20 25 32 35 41 46 52 57 64 70 71 77 78
cat_threshold=0 65536 0 2048 1073741824 805372936 16 66 805310466 2348810240 67639889 4026531840 675282944 3289400624 805306385 2214592548 1032 16 0 536875008 67110993 2415919104 4194304 3222275104 1 1073742116 1 2147483904 142606913 10518752 268435456 6 0 0 66 6144 536870912 4194304 2147483648 268435456 2147483652 17 0 4194304 1048576 1 4 0 2147483648 0 0 268435456 4 0 0 134217728 2129984 2147483778 524545 1048601 2465857 262176 4200449 4 0 134382656 101107840 2097152 269830 41469952 400 528384 0 134217728 0 16 4 16
is_linear=0
shrinkage=0.05


Tree=6
num_leaves=128
num_cat=1
split_feature=11 2 4 9 11 11 2 4 0 11 3 5 13 0 7 9 4 5 7 4 12 9 13 0 0 2 2 12 5 2 4 0 12 11 4 12 0 5 15 13 9 2 15 13 12 2 13 13 6 3 10 0 14 13 13 4 17 3 6 15 3 15 11 8 11 0 14 2 6 12 12 13 3 0 2 13 12 2 3 2 0 0 2 13 5 12 9 2 12 0 15 15 13 13 15 11 2 13 12 12 3 9 5 11 2 4 3 7 15 0 13 2 13 14 15 12 0 10 8 5 2 2 13 4 0 7 5
split_gain=1.29363e+14 8.63809e+13 3.89684e+13 2.5312e+13 5.85475e+13 2.20481e+14 2.3462e+13 1.43133e+13 8.86782e+12 6.95321e+12 7.14043e+12 5.43096e+12 4.49845e+12 3.82917e+12 3.20378e+12 3.06696e+12 2.73357e+12 2.60714e+12 2.99631e+12 2.27016e+12 2.20883e+12 1.70309e+12 1.57241e+12 1.51278e+12 1.44605e+12 1.12523e+12 1.11441e+12 1.10488e+12 9.82885e+11 8.77653e+11 8.70899e+11 8.18014e+11 9.45071e+11 7.64718e+11 8.17995e+11 6.16933e+11 6.11447e+11 5.95892e+11 7.18091e+11 7.14166e+11 5.46429e+11 5.38574e+11 1.17637e+12 7.52779e+11 5.69008e+11 5.35492e+11 6.4971e+11 5.32192e+11 4.97858e+11 4.85001e+11 4.79537e+11 4.4639e+11 4.17404e+11 3.97056e+11 3.85684e+11 3.69113e+11 3.66721e+11 6.28248e+11 3.6431e+11 3.59199e+11 3.55211e+11 3.48318e+11 3.27718e+11 4.13417e+11 3.33702e+11 3.19019e+11 3.15348e+11 3.12191e+11 3.08202e+11 3.01368e+11 3.00371e+11 5.29501e+11 2.99953e+11 2.99428e+11 2.84787e+11 2.61224e+11 4.05931e+11 2.56545e+11 2.5113e+11 2.49149e+11 3.54974e+11 3.68027e+11 2.47582e+11 2.40764e+11 2.28041e+11 2.26578e+11 2.21846e+11 2.16541e+11 4.22885e+11 2.67316e+11 2.0934e+11 2.07362e+11 2.0342e+11 3.04331e+11 2.00665e+11 1.93229e+11 1.92804e+11 1.90422e+11 2.91846e+11 1.89613e+11 1.80695e+11 1.78888e+11 1.77801e+11 1.68151e+11 1.67031e+11 1.63913e+11 1.63849e+11 1.60785e+11 1.58801e+11 1.51402e+11 1.46256e+11 1.54189e+11 1.45068e+11 1.44516e+11 1.43037e+11 1.42287e+11 1.41747e+11 1.41657e+11 1.73733e+11 1.60165e+11 2.67352e+11 3.98661e+11 1.84205e+11 1.63014e+11 1.4015e+11 1.39495e+11 1.51094e+11
threshold=1.2405032167920045 -1.4242832841926667 1.159879815049748 0.077404454868624226 -0.18192288994942504 -0.19122432980139489 0.97068919809588639 0.96020576446898598 0.57936545950232121 0.23935242874559967 2.3942365276744852 0.71723426910746535 -0.20509572282789718 0.28968272975116061 -0.028711815871302969 0.35395456137484493 -0.36208017048805968 7.0532723971260678 -0.050884733129906552 0.62741568016771609 0.56865883878735091 -0.04164242471444924 -1.191327897776371 0.28968272975116061 1.0000000180025095e-35 -1.4564682614082207 -1.4564682614082207 0.04186476777681878 0.79751056384023433 -1.4564682614082207 0.53423445656336044 0.28968272975116061 -0.62127600396585092 -0.097247761883108727 1.7855251735361353 0.17201389120295033 0.28968272975116061 1.4312301597594976 1.1332757129673154 0.75404216160001447 -0.055548130310999429 -1.296004515202178 1.3730669148191039 0.23383178360521484 0.48809033380926947 -1.1482059540245511 0.58063870226841485 0.99789077628507683 2.1971646186213016 0.75862813187738765 -0.020203528030000348 1.1587309190046426 0.68366692379106453 -0.20509572282789718 -0.21593343903612214 1.8476459892723722 0 0.56676790949649647 0.34697106712519737 0.30054626653655964 1.6891502104247098 0.28746674643555298 0.10951583981111432 0.12115325283493027 -0.11072246268447535 0.57936545950232121 -1.1153764546287059 -1.3840768435541813 0.59133625317185268 0.6616224983774448 -0.32379229327755038 0.84616274936992719 3.2576075283884953 -1.4484136487558026 -1.4022121386965287 0.84616274936992719 -0.71423966355594481 -1.3840768435541813 1.3629878323771949 0.24834645063706881 0.28968272975116061 -0.8690481892534816 -1.4743218087083798 0.13087347962707749 0.32164195131377177 -0.032506159895256508 -0.053659624070756494 -1.4022121386965287 -0.19364316985141908 -1.1587309190046422 -0.89840974272238194 -0.2269943775373747 -0.020854547288072438 0.42891067535326477 -0.25315341773938799 -0.18746873046157622 0.68967131446560181 -0.080461986433309762 -0.24322378829946922 0.4447072926672257 6.3657431309589319 0.14620856948602021 -0.40213118036340539 -0.16214278678671851 -1.3807826025312655 0.42774162958695411 -0.30619610233655831 -0.072285561967803599 0.36158402700792397 -1.1587309190046422 -0.020854547288072438 -1.4616593172539809 -0.77407582375970907 -0.393430244518507 -0.97688686332842167 -0.33618744788956306 0.28968272975116061 -0.040440874479182147 -0.070181455036259513 -0.18214325729764416 0.46097233511390823 0.29033011141203852 0.55896326985196465 1.159879815049748 0.57936545950232121 -0.072449007258138964 2.0295715809167234
decision_type=2 2 2 2 2 2 2 2 2 2 2 2 2 2 2 2 2 2 2 2 2 2 2 2 2 2 2 2 2 2 2 2 2 2 2 2 2 2 2 2 2 2 2 2 2 2 2 2 2 2 2 2 2 2 2 2 9 2 2 2 2 2 2 2 2 2 2 2 2 2 2 2 2 2 2 2 2 2 2 2 2 2 2 2 2 2 2 2 2 2 2 2 2 2 2 2 2 2 2 2 2 2 2 2 2 2 2 2 2 2 2 2 2 2 2 2 2 2 2 2 2 2 2 2 2 2 2
left_child=3 2 14 9 5 -5 7 40 12 16 11 49 66 25 26 50 -1 18 -9 -17 35 -20 -10 30 41 70 36 -27 47 54 53 32 -12 34 48 -14 82 -26 39 69 -3 42 43 61 104 46 -21 59 56 84 -6 52 -25 -16 -15 -36 57 67 -35 -13 107 87 63 78 -65 100 -7 102 96 97 -4 -72 125 -63 86 76 -31 -46 -52 80 81 -30 92 -81 -11 -38 -57 88 91 -89 -34 -23 108 -94 110 -88 -60 98 -39 -99 -48 -66 -18 -69 -45 -103 -86 124 112 -43 -32 -112 -2 -114 -47 -24 -28 -109 -119 120 121 -120 -123 -122 -59 -70 -127
right_child=1 6 13 4 15 8 -8 17 22 10 31 28 20 29 23 19 33 -19 21 45 -22 24 115 51 37 27 116 -29 79 75 94 -33 90 58 55 -37 85 38 -40 -41 -42 109 -44 44 77 114 65 -49 -50 -51 62 -53 -54 -55 -56 74 -58 60 68 -61 -62 73 -64 64 101 -67 -68 103 72 -71 71 -73 -74 -75 -76 -77 -78 -79 -80 83 -82 -83 -84 -85 106 -87 95 89 -90 -91 -92 -93 93 -95 -96 -97 -98 99 -100 -101 -102 105 -104 -105 -106 -107 -108 117 -110 -111 111 -113 113 -115 -116 -117 -118 118 119 -121 123 122 -124 -125 -126 126 -128
leaf_value=-566.09314530172537 5548.142578125 2140.1113968377367 26760.707976973688 -110.41190004664982 2064.5513163911742 63092.784218749999 20626.215275493421 1500.794437026002 58778.918005952379 8.9652627289091367 8323.8146230468756 5441.7147860667746 79241.928750000006 24289.034742647062 16920.004369703391 -379.99714357878037 1411.7297222056288 -585.00493164062505 10758.651749588817 3761.9575009445471 67976.109043560617 3764.9070788574218 45410.914914772729 8910.8687174479182 3740.1296081624459 33220.360312500001 14036.034880719868 43222.433300781253 3049.6713993952826 30729.978000000003 12300.448907930107 6911.0842471168162 13907.100341796875 -102.24982681780412 2299.5638096851667 91660.994531250006 8734.8630273437502 5017.9174377441414 13727.629061994883 8891.5296883877854 114.02279848873036 4860.5690286959134 18986.415917968752 18158.682812499999 4219.347647460937 1608.971607771374 8737.5551874069934 3425.6980632843511 2184.6368794450859 2699.9108038665076 2757.1186934198445 13799.084929800723 14580.142759146342 22771.424013157899 17328.65890299479 1297.4431610780209 -538.56640947947233 1401.4020489833269 1840.0812449233517 9178.5012127371392 -529.83140588393496 5339.797451636905 -202.06290579725814 228.68091982645467 433.23827396865266 3997.3302330729166 55039.849495967748 -526.19308435227208 1569.5696519711146 -115.87835792335305 34972.66020220588 25373.514218750002 2271.2413849526265 12681.730194240663 -229.89887300674846 32550.80109375 22283.358049242426 10562.137169300426 911.17371020342853 3637.4414708259023 1950.2300550949576 8602.8184005301355 8028.8873535156254 1592.5160749765091 -463.07117683656753 5475.9019567871101 -81.025223314050578 5046.6942656935316 1257.7388645717076 8223.4631838255282 19871.877323190791 10430.840512520926 15037.939713541666 8687.758243534483 16276.454884326551 543.20603348132249 8.9221299030507613 8967.3600086300867 -337.74818546070776 3788.0584619140627 5421.1885279605267 71.538723798990247 -141.30336041621089 -250.59267527159133 12378.88040625 1622.4234280232968 1191.3248847279162 -220.65327451785407 13087.988483796296 6567.6325421880019 11105.7273046875 16002.110985137197 12909.862244591348 8372.6513454861106 3350.1015260253293 39993.935995370375 11280.385317382814 1745.0037161758264 552.16895535698893 52.792211154799411 -234.54895191546777 5222.8559785480747 2081.3849753128857 1024.6020894749961 -28.825363037402816 94.413884834997361 959.0777277367215
leaf_weight=115680 26 380 38 573 583 20 190 391 21 4094 50 122 20 34 59 380 188 183 190 489 33 20 22 156 749 65 112 48 52 25 93 84 24 6169 203 20 80 101 29 110 2678 195 24 25 25 168 147 124 198 197 367 138 41 57 48 567 15353 502 572 136 1934 21 1144 3037 759 75 31 18622 190 37 51 20 188 41 3235 20 33 44 370 259 80 70 118 324 186 160 2312 114 56 158 38 28 54 29 129 2673 192 43 34 30 57 200 9350 7875 25 1150 766 1920 27 389 20 82 26 54 396 27 80 194 361 4050 754 79 114 390 260 4572 568
leaf_count=115680 26 380 38 573 583 20 190 391 21 4094 50 122 20 34 59 380 188 183 190 489 33 20 22 156 749 65 112 48 52 25 93 84 24 6169 203 20 80 101 29 110 2678 195 24 25 25 168 147 124 198 197 367 138 41 57 48 567 15353 502 572 136 1934 21 1144 3037 759 75 31 18622 190 37 51 20 188 41 3235 20 33 44 370 259 80 70 118 324 186 160 2312 114 56 158 38 28 54 29 129 2673 192 43 34 30 57 200 9350 7875 25 1150 766 1920 27 389 20 82 26 54 396 27 80 194 361 4050 754 79 114 390 260 4572 568
internal_value=-1.4278 6149.94 15427.3 -235.935 2209.3 15488 3322.62 2785.42 61559.8 -355.767 1240.15 952.704 69591.6 29723 11883.5 1116.74 -408.675 5201.88 5569.72 3028.84 77551.6 6209.17 47331.9 14150.1 5833.01 33972.9 9590.35 37469 4037.55 23826.4 16077.6 10640.9 13438.3 -190.811 -254.084 85451.5 8487.36 4561.17 6162.62 5544.63 365.793 7069.93 8147.75 7680.73 11207.2 4001.33 4860.45 6117.68 -318.574 266.071 686.583 11618.4 10090.8 19795.3 20214.7 191.702 -326.575 -256.55 170.676 7411.49 82.5878 6722.63 572.259 722.832 564.21 6785.76 58197.9 -355.986 438.693 4041.95 30348.5 32268.7 308.378 10194.9 143.005 27623.3 25924.1 8264.03 1830.39 3025.31 4538.61 6235.9 9870.69 2500.98 171.052 6562.22 360.286 6150.07 4209.57 6892.02 17562.9 7653.37 10876.9 12819.2 14746.6 253.693 1379.89 4781.56 3669.08 6838.88 7810.92 1047.38 -110.692 -444.284 15268.8 1392.66 868.092 219.928 9664.71 5997.64 13734.5 15042 8792.75 9847.24 2831.47 42426 12887.8 152.715 273.359 223.69 631.308 1532.88 3367.27 194.707 913.398 239.143 189.964
internal_weight=224193 8233 1923 215960 10089 767 6310 6120 194 205871 6606 6410 124 382 1541 9322 199265 3062 2879 1712 73 2488 70 775 2298 222 766 113 1167 160 440 196 112 83585 71134 40 574 1133 384 355 3058 1165 581 557 119 1332 768 382 62144 5243 7610 335 197 116 82 8990 61946 46593 12451 258 10558 438 7027 5883 5146 279 51 36035 6282 245 109 71 5518 62 8787 78 58 69 737 785 202 122 334 583 5046 240 5552 376 104 272 62 48 216 83 324 4985 764 208 135 73 204 2109 9538 26497 50 1350 952 8624 133 584 195 102 106 80 564 49 192 7862 5942 5748 1698 554 193 1144 762 5330 5140
internal_count=224193 8233 1923 215960 10089 767 6310 6120 194 205871 6606 6410 124 382 1541 9322 199265 3062 2879 1712 73 2488 70 775 2298 222 766 113 1167 160 440 196 112 83585 71134 40 574 1133 384 355 3058 1165 581 557 119 1332 768 382 62144 5243 7610 335 197 116 82 8990 61946 46593 12451 258 10558 438 7027 5883 5146 279 51 36035 6282 245 109 71 5518 62 8787 78 58 69 737 785 202 122 334 583 5046 240 5552 376 104 272 62 48 216 83 324 4985 764 208 135 73 204 2109 9538 26497 50 1350 952 8624 133 584 195 102 106 80 564 49 192 7862 5942 5748 1698 554 193 1144 762 5330 5140
cat_boundaries=0 1
cat_threshold=208
is_linear=0
shrinkage=0.05


Tree=7
num_leaves=128
num_cat=17
split_feature=16 1 2 16 4 1 9 9 2 0 9 16 2 1 12 3 7 16 12 16 2 0 0 0 1 12 7 16 2 2 0 16 4 16 0 12 13 15 0 3 0 9 7 7 2 13 3 10 15 16 12 0 16 3 13 1 0 3 13 12 15 6 16 15 0 4 1 1 15 16 12 12 1 15 0 13 13 17 17 10 1 0 12 15 4 0 16 3 7 1 14 7 15 0 13 12 4 3 3 3 16 0 0 13 14 15 0 9 3 3 12 0 16 15 12 0 4 1 14 12 12 2 3 15 0 0 13
split_gain=2.18125e+14 9.70632e+13 7.06557e+13 5.20134e+13 3.73203e+13 1.608e+13 9.73631e+12 8.90509e+12 1.00681e+13 8.00321e+12 7.05715e+12 2.57294e+13 6.63167e+12 5.31482e+12 4.06754e+12 3.40237e+12 3.15177e+12 3.15087e+12 2.89278e+12 2.43921e+12 1.97013e+12 1.87112e+12 1.81525e+12 1.73484e+12 1.58192e+12 1.43463e+12 1.42015e+12 1.28963e+12 1.03503e+12 1.00576e+12 9.63832e+11 8.76607e+11 7.9641e+11 8.88324e+11 7.38257e+11 8.54632e+11 6.82848e+11 6.42982e+11 6.20619e+11 5.94536e+11 5.51831e+11 5.30789e+11 4.44975e+11 4.21139e+11 5.14979e+11 4.53774e+11 3.8826e+11 4.4769e+11 3.85249e+11 3.70838e+11 3.65151e+11 3.48526e+11 3.41867e+11 3.34096e+11 3.3252e+11 3.20319e+11 3.10287e+11 2.78261e+11 2.72522e+11 2.71085e+11 4.82367e+11 2.68132e+11 3.93451e+11 2.66874e+11 2.64697e+11 2.61081e+11 2.23443e+11 2.19401e+11 2.37583e+11 2.17271e+11 2.04486e+11 2.01811e+11 2.11315e+11 1.95952e+11 1.92879e+11 1.83587e+11 2.74659e+11 1.8065e+11 1.65706e+11 2.55208e+11 2.78461e+11 1.95252e+11 1.65335e+11 1.62609e+11 1.61741e+11 1.70404e+11 1.52714e+11 1.52704e+11 1.48763e+11 1.48016e+11 1.74386e+11 1.46237e+11 1.43318e+11 1.41991e+11 1.88964e+11 1.39022e+11 1.33717e+11 1.42172e+11 2.31407e+11 1.6707e+11 1.35987e+11 1.32144e+11 1.31179e+11 1.30924e+11 1.30425e+11 1.29091e+11 1.27927e+11 1.21934e+11 1.20164e+11 1.19319e+11 1.16993e+11 1.15859e+11 1.15556e+11 1.12814e+11 1.11796e+11 1.10982e+11 1.10554e+11 1.09814e+11 1.07165e+11 1.06263e+11 1.15807e+11 1.05281e+11 1.04738e+11 1.05312e+11 1.0452e+11 1.02504e+11 1.01801e+11
threshold=0 1.5562911069368093 -1.4083130838452662 1 0.27687679137037841 1.5752135918578813 -0.04764741748086742 0.022398141597541461 -1.4223223623082164 0.57936545950232121 0.022398141597541461 2 -1.4823594335754133 1.7592001434136217 -0.069691623731293936 2.3942365276744852 0.35316072805585491 3 0.56865883878735091 4 -1.4022121386965287 0.57936545950232121 1.0000000180025095e-35 0.28968272975116061 1.095433986684101 -0.77001785931000122 -0.0093420783791159524 5 -1.5467633270391372 -1.4564682614082207 1.0000000180025095e-35 6 -0.38870337723216125 7 0.28968272975116061 -0.68325177702591355 -0.20509572282789718 -0.92456878292439504 1.0000000180025095e-35 0.4420587649489171 0.28968272975116061 0.10777525788476112 -0.021628986543512242 1.7958610333540015 -1.1482059540245511 0.56980098606018981 6.3657431309589319 0.016930881124500897 -1.2951551857862498 8 -0.71423966355594481 1.1587309190046426 9 -0.41171922464604843 -0.62776665494867157 1.1649891182997703 0.57936545950232121 -0.28221357453894697 1.0358227830138647 -0.32379229327755038 -0.58886110033189154 0.69606419004899067 10 0.66241298933107651 1.1587309190046426 1.4660466926069162 1.3777620769467196 -0.34618014226799415 -1.042284463833455 11 -0.032506159895256508 -0.4353486847856633 1.477797408816045 -1.0161254236314414 1.0000000180025095e-35 -0.020854547288072438 0.42891067535326477 12 13 -0.017935069743964051 -1.2330793181387503 0.28968272975116061 -0.082086778343306396 -0.89840974272238194 0.67622489253190232 1.1587309190046426 14 0.60513995397267462 -0.067520678573498402 1.3144248277237125 0.45660319641769548 -0.041246683086149281 0.36158402700792397 1.448413648755803 1.1767130937207895 0.35794121038313814 -0.33545696374395811 0.58115742617506327 1.2286856767105709 1.1999066433534373 15 0.28968272975116061 1.0000000180025095e-35 -0.77407582375970907 -0.393430244518507 -0.97688686332842167 0.28968272975116061 -0.040799195433103008 1.1327555655201254 3.1089158560433048 -0.71423966355594481 -0.57936545950232099 16 -0.87225070252036851 -0.51591718976374445 1.1587309190046426 0.010644723929362504 -1.1577828276836153 -1.1328428951958884 1.1574286828579456 -0.20603832446343157 0.88644767071100639 0.82098270415117713 0.75396963003812301 0.57936545950232121 0.57936545950232121 0.15254891204352741
decision_type=9 2 2 9 2 2 2 2 2 2 2 9 2 2 2 2 2 9 2 9 2 2 2 2 2 2 2 9 2 2 2 9 2 9 2 2 2 2 2 2 2 2 2 2 2 2 2 2 2 9 2 2 9 2 2 2 2 2 2 2 2 2 9 2 2 2 2 2 2 9 2 2 2 2 2 2 2 9 9 2 2 2 2 2 2 2 9 2 2 2 2 2 2 2 2 2 2 2 2 2 9 2 2 2 2 2 2 2 2 2 2 2 9 2 2 2 2 2 2 2 2 2 2 2 2 2 2
left_child=1 4 5 6 -1 56 39 8 26 14 13 -12 23 17 37 -15 41 32 -16 27 -10 36 42 59 119 -11 29 74 48 40 71 57 -5 102 35 -17 118 -4 -28 55 66 -9 67 44 45 -18 47 65 -29 125 -23 -25 61 -54 -44 -2 -3 -19 111 -6 -61 86 101 -24 89 -30 75 -22 -69 126 -42 -26 -73 -38 -13 92 -77 96 79 -55 -81 87 -45 -37 85 -65 -35 107 -89 90 -40 109 103 94 -32 -48 -59 100 99 -99 -98 114 121 -8 -105 -46 -31 -80 -107 -90 -58 113 -100 -56 -63 -108 -64 -67 -7 120 -14 -34 -118 -124 -91 -21 -49
right_child=3 2 9 10 12 21 7 16 20 25 11 19 24 15 18 34 43 31 -20 49 22 50 63 51 30 -27 38 28 46 106 93 -33 33 52 -36 83 73 -39 64 -41 70 -43 54 82 105 -47 95 69 -50 -51 -52 -53 53 78 58 -57 110 77 -60 60 -62 62 116 84 -66 117 -68 68 -70 -71 -72 72 -74 -75 -76 76 -78 -79 81 80 -82 -83 -84 -85 -86 -87 -88 88 91 124 -92 -93 -94 -95 -96 -97 97 98 112 -101 -102 -103 -104 104 -106 108 115 -109 -110 -111 -112 -113 -114 -115 -116 -117 122 -119 -120 -121 -122 -123 123 -125 -126 -127 -128
leaf_value=-115.64545336945417 1797.9768179515054 12824.1193140625 51583.292395833334 -428.3226418726565 25422.672574013159 33485.456324404768 5270.7355769230771 305.91699578572894 -584.88039358760534 53476.385344827584 18615.159480468752 7336.1165280577961 11242.708004712302 744.10234769235058 85847.898084677421 7630.0153943650266 4050.0913412584578 -429.36789174791784 64577.302817234857 579.52681076620865 3429.2102654683222 29193.481 2867.1514865653462 16528.839269770408 16297.485005647592 38945.287499999999 14935.055276621943 6849.8761985085221 30.38609688544167 13334.233101981026 11707.935140498994 -534.00303636517947 1556.7520722236163 392.29746906537491 6565.5302246093752 13211.745532226563 36249.222953125005 61935.28052083333 10426.758482142857 1709.1225816053361 8298.1197509765625 2172.9510755719266 5498.9795084635416 4610.0543390028215 1528.5230400267101 8003.2462601642228 1963.3115403925331 2935.5472369337563 2916.4901226900542 -297.11821670865965 21327.553038194445 23176.047253787881 2075.404979830078 -380.4880223627498 6212.9853466796885 -455.31215137029369 11065.04313038793 832.38602219536187 4294.3003043619792 26475.523415178573 34718.857595486115 2015.2471436599205 1361.9572612436061 5174.366941189237 13303.098817274307 2134.359606652511 7627.4429315082107 2925.0366652268631 6547.0945748116637 1011.6472433299419 5202.1068127441413 17716.12100317029 21984.859921875002 41473.526841517858 4070.4685901988641 14286.042570891206 8253.3705280172417 -445.54307611975378 -22.587556358920533 1532.5806530687951 -110.08446447141321 -118.15343703044425 6102.2220730938498 18393.786370998478 3833.7238225446436 10464.834379245925 -450.03934111259736 1350.2417387125724 65.826200839909177 13646.142766203706 5398.9705537683831 2148.1122797600578 12433.588773148149 16259.1640625 15698.275821314104 4653.2977446831601 -109.09313453132532 193.22943451382812 342.36133729972994 1118.5758527696544 -467.5622386604594 1262.554324782767 957.81857591098424 12264.369230769233 7954.0185908564818 4552.4753379420235 9115.2881114130432 457.70630471177992 2628.8156001720022 1791.8320799255373 6893.9856835937508 10740.978563391645 -338.84082886595445 9329.3334418818631 4205.7298550597625 12882.530698529412 65.342482708488049 833.66718401016954 28859.428629032263 12510.534921875 8427.869140625 2944.861477845845 452.53298386531372 1723.5393832234777 9286.1109374999996 2.5419117798183279 1753.9611150231046
leaf_weight=584 189 125 30 6340 38 21 26 772 178 29 190 93 63 192 31 47 280 16264 33 2328 97 25 688 49 83 41 184 77 1346 112 124 127232 486 1725 84 24 50 30 35 779 80 751 108 450 168 98 103 299 325 4555 36 33 198 4589 40 953 29 378 30 35 36 116 374 45 72 190 118 52 350 945 160 69 50 28 88 54 29 4617 3807 393 751 5552 316 41 105 23 771 554 1116 27 34 107 27 33 39 90 8411 3068 762 580 3864 164 665 26 54 114 46 2024 282 110 40 92 3257 106 117 34 956 1112 31 40 87 190 517 238 28 1150 467
leaf_count=584 189 125 30 6340 38 21 26 772 178 29 190 93 63 192 31 47 280 16264 33 2328 97 25 688 49 83 41 184 77 1346 112 124 127232 486 1725 84 24 50 30 35 779 80 751 108 450 168 98 103 299 325 4555 36 33 198 4589 40 953 29 378 30 35 36 116 374 45 72 190 118 52 350 945 160 69 50 28 88 54 29 4617 3807 393 751 5552 316 41 105 23 771 554 1116 27 34 107 27 33 39 90 8411 3068 762 580 3864 164 665 26 54 114 46 2024 282 110 40 92 3257 106 117 34 956 1112 31 40 87 190 517 238 28 1150 467
internal_value=-1.35761 16639.8 33876.2 -147.508 9439.93 21477.5 3755.1 4711.04 6644.06 58481.8 -297.407 815.387 16603.5 -371.494 66112 5474.77 2880.32 -382.819 74880.2 544.006 4424.82 31775.8 4938.49 24697.9 13974.2 44965.3 10350.6 1394.21 1235.44 9110.83 15766.1 -469.054 73.2008 197.824 10108.9 12766.4 35165.8 56759.3 12849.6 644.098 8062.99 1226.56 6542.33 4354.96 3646.97 5074.98 1023.16 925.996 3669.9 -0.532518 24551.3 19203.9 127.968 32.1361 7841.27 -82.3948 11338.5 -268.405 8785.18 28831 30655.2 496.803 865.793 3308.57 10891.7 518.68 9377.15 5563.56 6078.57 1556.37 6234.11 18189.8 19509.7 38124.6 5447.43 10333 12178.2 -163.531 10.8633 -213.552 454.223 107.896 5225.62 16480.4 5064.04 6963.79 131.873 270.647 661.603 9491.6 7949.3 375.403 9181.48 13268.2 12662.7 3217.71 -99.1862 -116.894 52.0297 340.351 -222.404 2292.13 1445.64 8353.11 9354.88 2689.89 12243.5 144.127 3182.6 220.688 8647.04 9351.26 -209.677 8475.54 3115.19 10716.4 580.43 1023.48 30727.6 10220.7 9610.1 1946.9 412.992 853.195 11426.5 387.632 2186.63
internal_weight=224193 1942 579 222251 1363 385 8212 6291 3060 194 214039 13358 779 200681 124 388 3231 200293 64 13168 1914 191 1736 191 588 70 1146 5135 4954 766 398 168433 31860 25520 196 112 130 60 380 1921 574 1523 875 1708 942 378 4552 4359 402 8033 61 82 24179 19201 376 1142 194 41201 268 109 71 4978 2482 861 196 2648 334 499 402 1711 240 202 119 78 181 216 83 24937 19003 5733 1144 13270 766 65 173 68 2496 7718 1887 124 69 1333 133 196 163 193 20320 19942 7667 3648 12275 397 1341 106 80 564 192 5831 396 1226 69 238 4019 146 233 80 2085 1302 52 190 150 676 1711 755 55 3478 766
internal_count=224193 1942 579 222251 1363 385 8212 6291 3060 194 214039 13358 779 200681 124 388 3231 200293 64 13168 1914 191 1736 191 588 70 1146 5135 4954 766 398 168433 31860 25520 196 112 130 60 380 1921 574 1523 875 1708 942 378 4552 4359 402 8033 61 82 24179 19201 376 1142 194 41201 268 109 71 4978 2482 861 196 2648 334 499 402 1711 240 202 119 78 181 216 83 24937 19003 5733 1144 13270 766 65 173 68 2496 7718 1887 124 69 1333 133 196 163 193 20320 19942 7667 3648 12275 397 1341 106 80 564 192 5831 396 1226 69 238 4019 146 233 80 2085 1302 52 190 150 676 1711 755 55 3478 766
cat_boundaries=0 5 10 13 20 26 27 33 37 44 50 51 56 57 58 64 70 75
cat_threshold=0 65536 0 2048 1073741824 805372936 16 66 805310466 2348810240 0 0 524288 67639825 3221225472 675282952 3222300016 268435553 2214592548 4 67108933 536870912 2151677952 2147483904 268468241 268435456 1 134218018 1 2148532528 17268865 545259664 266315 0 2147483648 0 1066016 6144 1342177280 0 134217792 35651620 1075904512 2 526353 0 134217728 0 268435456 4 17 67108864 0 4194304 2147483648 1 24 520 2048 0 0 0 268435456 4 34 0 0 16777217 8388624 8 0 0 0 98304 128
is_linear=0
shrinkage=0.05


Tree=8
num_leaves=128
num_cat=15
split_feature=16 1 2 16 4 11 1 11 2 0 2 16 3 4 13 16 11 12 2 0 0 2 10 1 13 7 4 16 2 2 0 0 0 16 16 1 14 12 0 0 2 12 1 3 3 15 14 7 16 6 13 12 0 16 13 12 7 0 14 2 12 0 12 13 2 6 12 0 12 14 13 11 16 13 16 12 1 12 3 4 6 3 10 2 15 1 15 16 4 15 16 12 11 3 17 0 1 14 13 0 13 1 15 13 0 2 4 13 0 14 0 12 0 0 0 3 0 12 1 11 16 13 13 1 0 3 12
split_gain=1.96857e+14 8.75995e+13 6.37668e+13 4.69411e+13 3.36815e+13 2.73064e+13 1.45122e+13 1.24917e+13 1.05224e+13 7.2229e+12 5.98508e+12 5.34162e+12 4.32677e+12 5.13276e+12 3.72027e+12 3.43235e+12 1.95363e+12 1.83077e+12 1.7251e+12 1.68868e+12 1.56569e+12 1.55657e+12 1.45261e+12 1.42769e+12 1.3102e+12 1.28169e+12 1.21112e+12 1.11376e+12 1.08565e+12 9.07697e+11 8.69858e+11 8.08097e+11 7.39466e+11 6.74078e+11 6.69639e+11 6.33571e+11 7.78528e+11 6.2248e+11 5.60108e+11 4.98027e+11 4.84082e+11 4.53054e+11 4.37243e+11 4.26348e+11 4.22477e+11 4.20654e+11 3.67019e+11 3.66028e+11 3.61542e+11 3.43948e+11 3.63969e+11 3.29549e+11 3.286e+11 3.15904e+11 3.14946e+11 2.9646e+11 2.90517e+11 2.80034e+11 2.75789e+11 2.60895e+11 2.51135e+11 3.83157e+11 2.44654e+11 4.47869e+11 2.4358e+11 2.40467e+11 3.21475e+11 2.38889e+11 2.33417e+11 2.07083e+11 2.38503e+11 1.97989e+11 1.87626e+11 1.86453e+11 1.83321e+11 1.82135e+11 1.90712e+11 1.77228e+11 1.73592e+11 1.73294e+11 1.73059e+11 1.7249e+11 1.67227e+11 1.62372e+11 1.59208e+11 1.50023e+11 1.45499e+11 1.43773e+11 1.40563e+11 1.40199e+11 1.40184e+11 1.39905e+11 1.39394e+11 1.52092e+11 1.38294e+11 1.38064e+11 1.33584e+11 1.57383e+11 1.33413e+11 1.31708e+11 2.28305e+11 1.29157e+11 1.26322e+11 1.22217e+11 1.22119e+11 1.38117e+11 1.17302e+11 1.1655e+11 1.15454e+11 1.139e+11 1.13848e+11 1.13522e+11 2.87025e+11 1.12117e+11 1.10493e+11 1.08896e+11 1.07509e+11 1.05587e+11 1.05249e+11 1.0478e+11 1.04314e+11 1.04107e+11 1.03038e+11 1.01346e+11 1.28269e+11 9.88173e+10 9.67952e+10
threshold=0 1.5562911069368093 -1.4083130838452662 1 0.27687679137037841 5.6853362083637657 1.5752135918578813 1.626539865935092 -1.4242832841926667 0.57936545950232121 -1.4823594335754133 2 2.3942365276744852 2.6995886050836231 -0.20509572282789718 3 -0.099098503920886802 0.68641280760146972 -1.4022121386965287 0.57936545950232121 0.28968272975116061 -1.5238604058865179 -0.028046153331166727 1.095433986684101 -1.191327897776371 -0.0093420783791159524 -0.095848103047043845 4 0.067074037076704549 -1.4564682614082207 1.0000000180025095e-35 0.28968272975116061 0.28968272975116061 5 6 1.7592001434136217 -0.92906775524542906 0.04186476777681878 1.0000000180025095e-35 0.28968272975116061 -1.1863302619478164 0.17201389120295033 1.7146134614133179 -0.41171922464604843 -0.34456814681273656 -1.3474732661902762 -0.52733962220023745 0.096344059315626659 7 -0.14175930496811309 0.52645012122728996 -0.71423966355594481 0.57936545950232121 8 -0.21593343903612214 1.1574286828579456 0.096344059315626659 0.57936545950232121 -1.1153764546287059 -0.46740727606111265 -0.25561894291148168 0.28968272975116061 -0.32379229327755038 0.84616274936992719 -1.5861051304181326 1.2895224990194392 0.77317888988555727 1.1587309190046426 -1.1666628068944016 0.095630091362595607 0.42891067535326477 0.10951583981111432 9 -0.7144683846144716 10 -0.4353486847856633 1.477797408816045 0.55626368417533822 -0.28221357453894697 1.8742691960164739 1.1149759375575425 0.84496523194878859 -0.04091564846246782 -1.4361053805537296 0.1566715454254867 1.1363503988957502 0.67549250943208328 11 0.61410407679566525 0.76704915013912978 12 0.04186476777681878 -0.18847527437685904 0.50920984278222914 13 -1.0000000180025095e-35 1.3144248277237125 0.45660319641769548 -0.25928430386902213 1.1587309190046426 1.1767130937207895 1.3777620769467196 -1.0030459035304349 -0.031692263496297196 0.57936545950232121 -1.4616593172539809 2.0650688443492022 -0.15090714178677223 0.28968272975116061 -0.78351408385224375 -0.8690481892534816 0.22159450965100022 -0.57936545950232099 0.28968272975116061 -0.28968272975116049 0.067931331306179371 1.448413648755803 -0.71423966355594481 1.7592001434136217 -0.15672043730761434 14 -0.93664156688308398 -0.73072495892680911 -0.90822409682607841 0.28968272975116061 0.18304746473471409 -0.4353486847856633
decision_type=9 2 2 9 2 2 2 2 2 2 2 9 2 2 2 9 2 2 2 2 2 2 2 2 2 2 2 9 2 2 2 2 2 9 9 2 2 2 2 2 2 2 2 2 2 2 2 2 9 2 2 2 2 9 2 2 2 2 2 2 2 2 2 2 2 2 2 2 2 2 2 2 9 2 9 2 2 2 2 2 2 2 2 2 2 2 2 9 2 2 9 2 2 2 9 2 2 2 2 2 2 2 2 2 2 2 2 2 2 2 2 2 2 2 2 2 2 2 2 2 9 2 2 2 2 2 2
